baseline/conv2d/kernel:0
(5, 5, 3, 6)
[[[[-6.62861690e-02 -1.54209882e-01  1.21586390e-01  1.62058935e-01
     1.67028338e-01 -9.80531871e-02]
   [-1.26041949e-01  4.20811623e-02 -4.28439938e-02  9.58069116e-02
    -4.14690711e-02 -1.20358959e-01]
   [ 1.14161186e-01 -9.97659862e-02 -1.40863284e-01 -1.32223433e-02
    -5.26715219e-02 -2.19196156e-01]]

  [[-1.66759398e-02  1.13519445e-01  8.58694166e-02  2.14755684e-01
     1.13901719e-01 -1.35709569e-02]
   [-1.83296368e-01  2.03113090e-02 -1.32179871e-01 -5.38105704e-02
    -1.10005714e-01 -1.46171823e-01]
   [ 5.21273799e-02 -9.42337364e-02 -2.47610137e-02  8.32750089e-03
    -6.58561438e-02 -1.47161245e-01]]

  [[-3.41271520e-01  1.14766128e-01  9.33101624e-02  7.84212053e-02
    -4.85173725e-02  2.25851256e-02]
   [ 3.13754492e-02 -1.98466778e-02  9.89481900e-03  1.57748926e-02
    -1.46005347e-01 -5.17187044e-02]
   [-7.90810585e-02  1.87522937e-02 -5.11881039e-02  1.39986232e-01
    -1.02049574e-01 -1.97760642e-01]]

  [[-1.93973526e-01  1.36292502e-01 -1.26349658e-01  2.96207488e-01
    -6.05584569e-02  9.15803388e-02]
   [-4.25876398e-03  1.74901694e-01  3.38192992e-02 -8.51581991e-02
     6.66029081e-02  9.82395038e-02]
   [ 1.27105536e-02  1.10452205e-01  1.01797976e-01 -3.69513258e-02
     1.56206831e-01  1.09510742e-01]]

  [[-2.33593926e-01 -2.09467426e-01  1.49682105e-01  1.35799617e-01
    -1.96243420e-01  8.56127888e-02]
   [-1.41672641e-01 -8.66597071e-02 -5.96498363e-02  5.75569533e-02
     4.72555794e-02  1.02289900e-01]
   [ 2.18363389e-01 -6.56876862e-02  7.07045346e-02 -1.11608274e-01
     1.48878887e-01  2.94606209e-01]]]


 [[[ 5.44324256e-02 -6.30531088e-02 -4.67798933e-02  2.44661584e-04
     1.53818160e-01 -2.33494848e-01]
   [-7.99552873e-02 -1.14818916e-01  5.55955106e-03 -2.12163746e-01
     7.56703899e-04 -3.93421426e-02]
   [-1.13395020e-01 -2.23649759e-02  1.18215166e-01  1.41360357e-01
     3.99058685e-02 -2.14439496e-01]]

  [[-6.74223453e-02 -1.02349192e-01 -7.48414025e-02  4.60825628e-03
     6.74266592e-02 -9.25926343e-02]
   [-1.72399834e-01 -1.93925202e-02 -4.60250080e-02 -1.52006119e-01
    -2.40568161e-01 -1.64736167e-01]
   [ 9.14013535e-02 -1.30438343e-01  9.86526608e-02 -4.69911844e-02
     2.36521419e-02  3.92347053e-02]]

  [[-2.80374706e-01 -7.16783553e-02 -1.65147617e-01 -1.56080887e-01
    -3.93384360e-02 -3.22471298e-02]
   [ 1.13610461e-01 -1.15219273e-01 -3.84472162e-02 -1.62142441e-01
    -5.81311919e-02 -6.18894063e-02]
   [ 1.73844635e-01 -2.05198638e-02  7.93050323e-03  1.05235964e-01
    -2.04382837e-01  6.33289665e-03]]

  [[ 5.34847286e-03  1.33467363e-02  1.90617982e-02 -7.34321252e-02
     1.86589867e-01  1.15453050e-01]
   [ 1.01120196e-01  3.68980169e-02 -7.79744983e-02 -1.54012248e-01
    -1.58572271e-01  1.88332379e-01]
   [ 9.75619443e-03  3.78710963e-02 -2.46986263e-02  4.70330417e-02
     3.66383977e-02  1.09857410e-01]]

  [[ 1.26496062e-01  1.80685326e-01  1.41533241e-01  2.27492258e-01
    -6.51342645e-02  5.55912629e-02]
   [-1.00885965e-01  2.40039736e-01 -8.77889395e-02 -1.92893893e-01
     1.39677763e-01 -2.61604544e-02]
   [ 1.12609982e-01  1.38957947e-01 -1.43504575e-01 -2.09049076e-01
     1.72851741e-01  2.47876003e-01]]]


 [[[ 2.42382824e-01  2.40120366e-01 -4.66797454e-03  5.64095341e-02
     2.47455269e-01 -2.59872049e-01]
   [-1.07938386e-01  1.79802924e-01  2.46643070e-02 -1.53646916e-01
     1.21104904e-01 -1.13508672e-01]
   [ 8.84298012e-02  1.25837475e-01  1.64653972e-01 -9.52601526e-03
    -5.27877323e-02 -1.96202360e-02]]

  [[ 1.53590739e-01  8.41419250e-02 -1.11210495e-01 -9.99234021e-02
    -2.17125076e-03  1.27830252e-01]
   [ 1.10804714e-01  2.01220751e-01  4.62547876e-02 -2.96706975e-01
    -2.03859299e-01 -5.23636341e-02]
   [ 1.46579504e-01  7.07395077e-02  2.36937001e-01 -1.00803390e-01
    -2.71318574e-02 -3.44339125e-02]]

  [[ 1.99249312e-01 -3.03255409e-01 -1.79526955e-01  1.14674531e-02
    -4.85432222e-02  3.80128920e-02]
   [ 2.70209461e-01 -2.17365846e-01 -3.78821008e-02  1.05968386e-01
    -2.14639515e-01  2.29691248e-02]
   [-3.26167531e-02 -1.47752181e-01  3.57757270e-01 -1.41628962e-02
    -2.22733289e-01  6.08114973e-02]]

  [[ 3.10516357e-01 -1.46382421e-01 -1.68484956e-01 -9.71434563e-02
     1.29668549e-01  8.48581716e-02]
   [ 1.65887222e-01 -1.02168344e-01  4.04301770e-02  1.11415751e-01
    -2.48985700e-02  2.01607451e-01]
   [-1.03294246e-01 -2.51713932e-01  2.00456381e-01 -1.81742236e-01
     2.20376998e-02  3.25018018e-01]]

  [[ 1.36652425e-01  1.77827459e-02 -1.05545782e-01  4.88928594e-02
     9.59698707e-02  2.07282782e-01]
   [ 1.45916566e-02  2.40738869e-01  1.15288878e-02  1.09569490e-01
    -9.33581740e-02 -1.38377979e-01]
   [ 3.68659161e-02  2.08680332e-02  1.70635879e-01  2.27767825e-02
     2.56589860e-01  1.03616655e-01]]]


 [[[ 1.27622232e-01 -3.21682319e-02 -5.09991013e-02 -1.55223951e-01
     1.20407790e-01 -1.16322376e-01]
   [-8.18696916e-02 -1.37997672e-01 -8.92803371e-02 -4.64384221e-02
     1.98888317e-01 -1.68536939e-02]
   [-7.31955394e-02  7.02894330e-02  1.05796337e-01  2.50350446e-01
    -2.34263521e-02 -2.08657593e-01]]

  [[-1.09874988e-02  1.29064685e-02 -8.47628638e-02 -2.07919046e-01
     6.76336661e-02 -2.46095136e-02]
   [ 6.38671517e-02 -5.23571968e-02  3.04054227e-02 -7.57793188e-02
    -1.12410411e-01 -3.93456258e-02]
   [-6.00901097e-02  1.63976789e-01  2.02406719e-01  8.76859948e-02
    -1.54590860e-01  1.16707370e-01]]

  [[ 1.23934457e-02 -2.42101792e-02 -1.95266858e-01 -2.40062043e-01
    -2.04753011e-01  8.06850120e-02]
   [ 6.06833138e-02  1.58292785e-01 -2.13886928e-02 -1.42357692e-01
    -2.31540307e-01  3.94720510e-02]
   [-1.33837655e-01  4.47684526e-02  3.42890084e-01  1.13268137e-01
    -3.54533568e-02  7.14004189e-02]]

  [[ 2.43363138e-02  1.12959452e-01 -2.21275210e-01 -1.44025803e-01
    -3.04728393e-02  1.41910613e-01]
   [ 1.01098090e-01 -2.42587123e-02  2.81970315e-02 -1.05375804e-01
     1.33931294e-01  1.42158911e-01]
   [-1.10469520e-01 -6.47427291e-02  3.09125036e-01 -1.61358923e-01
     6.70854449e-02  1.80062562e-01]]

  [[ 1.35866612e-01 -1.78433359e-01 -3.38350702e-03 -1.07732765e-01
     6.37829974e-02  7.40626380e-02]
   [-8.41974020e-02 -1.36818081e-01 -1.62167922e-01  6.46452978e-02
     2.09357310e-02 -1.20556071e-01]
   [-6.84219822e-02 -1.71740592e-01  1.11751802e-01 -2.10116684e-01
     1.16265222e-01 -1.04301482e-01]]]


 [[[ 6.98306337e-02  6.74325079e-02 -1.41722947e-01 -1.17146417e-01
     9.06811804e-02  5.84821962e-02]
   [-8.20545927e-02 -1.09608375e-01 -6.46698251e-02 -7.43884742e-02
    -2.11780295e-02  4.77324054e-03]
   [-4.11784574e-02 -2.66625248e-02 -6.03884049e-02  2.69852400e-01
     1.33677244e-01 -8.61780941e-02]]

  [[ 9.54392552e-03 -9.70219895e-02 -2.76713341e-01  3.91533487e-02
     1.28425667e-02  1.10276908e-01]
   [-7.12458193e-02 -1.88063681e-01  1.81721952e-02 -8.43433142e-02
    -2.05747440e-01 -2.09912751e-02]
   [-4.58422321e-04  6.88727349e-02 -7.97681883e-02  1.32819593e-01
    -1.60743639e-01  1.15549266e-01]]

  [[-1.47247657e-01  1.90019011e-01 -1.52455091e-01 -1.23903207e-01
    -2.18512148e-01 -5.23586711e-03]
   [-1.08420134e-01  1.56434342e-01  2.43798830e-02  2.16184452e-01
     4.43270244e-02  9.84451026e-02]
   [ 3.76276411e-02  1.99753076e-01  1.88034456e-02  2.40728244e-01
    -1.59128338e-01  1.43177107e-01]]

  [[ 1.51479263e-02 -2.95799077e-02 -1.50888026e-01 -1.80549338e-01
    -6.47249892e-02  5.33593558e-02]
   [-8.95088762e-02 -8.69654194e-02  6.91677481e-02  2.44312957e-02
    -7.93404281e-02 -1.20258719e-01]
   [ 5.89568205e-02 -5.45156300e-02  1.17610641e-01  1.00275114e-01
     1.60067528e-01  2.01903269e-01]]

  [[-7.34134838e-02  5.14718518e-02 -2.17059851e-02  1.95102207e-02
    -1.18496783e-01 -3.74700385e-03]
   [-2.16614693e-01 -8.41350183e-02  1.39352605e-01  1.37843320e-03
     1.31347775e-01 -2.17795721e-04]
   [-2.55634543e-02  9.20475796e-02  8.52410644e-02  2.76962649e-02
     2.14331612e-01 -1.56272113e-01]]]]
baseline/conv2d/bias:0
(6,)
[ 0.13809232 -0.03215728 -0.07550246  0.01402645  0.06105753  0.08068156]
baseline/batch_normalization/gamma:0
(6,)
[0.8098664 0.8096618 0.6146457 0.7880613 0.9526955 0.7327065]
baseline/batch_normalization/beta:0
(6,)
[-0.23973769 -0.34060803 -0.04131243 -0.27575773 -0.4290979  -0.2881345 ]
baseline/dense/kernel:0
(1536, 128)
[[ 2.64494829e-02 -6.31729960e-02  2.96324026e-02  9.26950276e-02
  -4.33213413e-02 -2.52644531e-02  7.69800171e-02  6.64571999e-03
   2.58860979e-02  4.12962474e-02 -5.73622994e-02  3.25335860e-02
   5.88153228e-02 -5.51196970e-02 -1.14704464e-02 -2.14275066e-02
  -3.85736674e-02 -2.01610420e-02 -1.89939816e-03  3.86252999e-02
  -6.79222345e-02 -1.32931629e-02  6.44433778e-03 -4.82534282e-02
  -1.49827274e-02 -1.76942199e-02  1.60656609e-02 -1.60281658e-02
   8.71666819e-02 -8.13587308e-02  9.01965983e-03 -1.51698338e-03
  -1.35745611e-02  1.52227255e-02  3.44959237e-02  2.38429271e-02
  -7.70721063e-02 -2.68840580e-03 -1.85564824e-03  1.83214135e-02
  -2.05176324e-02 -6.02018014e-02  4.42860946e-02 -4.52220552e-02
  -3.97237130e-02 -2.82101948e-02  2.29962803e-02 -9.27936286e-02
  -6.61424771e-02  4.24766168e-02 -4.78842184e-02 -5.04274145e-02
   1.59837548e-02 -1.80447269e-02 -4.91770479e-05 -2.90961377e-02
  -5.11208139e-02 -3.96539010e-02  1.02071702e-01 -3.84562509e-03
  -1.30621123e-03 -6.52628243e-02 -4.35657017e-02 -2.55891960e-02
   2.90532317e-03 -1.45199886e-02  4.55289036e-02  3.69136035e-02
   6.89536557e-02 -7.47810528e-02 -6.58709649e-03  1.04592592e-01
   1.34352697e-02 -3.08805685e-02 -9.79296677e-03 -3.97116989e-02
  -6.53754324e-02  4.52895015e-02 -4.65155356e-02  4.09409516e-02
   3.44482400e-02 -3.67877744e-02 -1.97168682e-02 -2.89408974e-02
  -6.58397898e-02 -2.59529501e-02  2.47717313e-02 -1.56288948e-02
   1.98110635e-03 -4.88347793e-03 -5.82901575e-02 -8.41256976e-02
  -3.00578829e-02 -5.84673211e-02 -1.72665750e-07  2.14743074e-02
   2.42677312e-02 -2.87846010e-02 -9.87102911e-02  2.71892399e-02
  -7.62652680e-02 -4.67759743e-03 -1.82785876e-02  2.53841020e-02
  -8.35860893e-02 -2.32395642e-02  1.87947489e-02 -1.23587474e-02
  -3.46260332e-03 -5.33998711e-03  4.87417507e-04 -4.18954678e-02
   1.96235850e-02  2.10855398e-02 -9.52546820e-02  1.51663097e-02
  -9.58070625e-03  4.59568277e-02 -5.05171977e-02  7.57132769e-02
  -1.37659563e-02 -7.74893910e-02 -1.35530727e-02  1.77612845e-02
  -1.06085226e-01 -4.65260213e-03  3.11349928e-02  1.16746835e-02]
 [-5.64069413e-02 -2.37609204e-02 -2.90457439e-02  3.14619578e-02
  -7.33793713e-03 -2.31199265e-02  6.72764285e-03 -1.71317324e-01
   2.54013687e-02 -9.36767459e-03  8.73754919e-03  2.74734497e-01
   3.05703823e-02 -5.14248237e-02 -4.64593731e-02  2.26313919e-02
  -8.10110793e-02 -2.06716429e-03 -4.86851223e-02  4.87129427e-02
   2.90148966e-02 -1.12456605e-02 -4.41998355e-02 -1.54885342e-02
  -1.14211664e-02  2.01108493e-02 -8.66063219e-03 -4.94605042e-02
  -7.77167901e-02 -9.05136205e-03 -2.16198452e-02 -1.15442708e-01
  -1.76073104e-01 -1.39843404e-01  1.28009140e-01  6.25614121e-05
  -3.68944667e-02  3.74323390e-02  3.82228494e-02 -1.45456800e-02
   4.40199301e-02  2.82869618e-02  3.33528519e-02 -4.12961654e-02
  -3.08782812e-02  7.32011646e-02 -6.50109723e-02 -5.03710192e-03
  -5.26441112e-02  6.86199293e-02  9.61211175e-02  4.32498157e-02
  -3.22110541e-02 -1.06913513e-02  1.01142392e-01  1.07464371e-02
  -2.94942800e-02 -6.25148998e-04 -1.11847147e-01 -9.34540667e-03
   4.80400547e-02  5.06587848e-02 -3.93709466e-02 -4.03279141e-02
   4.56067249e-02  1.95003465e-01  3.24249603e-02 -8.22442118e-03
  -1.26518920e-01 -1.26194343e-01 -8.74343142e-03 -7.12739006e-02
   1.83856431e-02  4.09793667e-02  4.35822345e-02  9.92644019e-03
  -3.64914127e-02 -6.38470333e-03 -9.87842456e-02  6.76507652e-02
   4.35067862e-02  1.45250931e-02 -1.23861777e-02  9.42765921e-03
  -8.38188678e-02  3.15970555e-02 -5.58690429e-02 -6.04957193e-02
  -1.52514391e-02 -1.63188688e-02 -8.16649664e-03  5.43139093e-02
   4.17086557e-02  1.17368862e-01  2.45086998e-01 -2.11446639e-02
   1.34916175e-02  5.75771974e-03  6.97180405e-02  6.82498962e-02
  -3.46761942e-02 -1.18462052e-02  2.03242488e-02  3.62270921e-02
  -3.32435966e-02  3.42888199e-02  1.66673511e-02 -8.82165805e-02
  -5.85272908e-02 -1.30052576e-02  6.15480989e-02 -8.18268731e-02
   5.37504489e-03  6.89388160e-03  4.94752266e-02  4.13293019e-02
  -6.91424403e-03  4.58885590e-03 -2.48271525e-02  9.63795111e-02
  -6.05456755e-02 -5.68215270e-03  1.53757129e-02 -5.54928444e-02
  -9.42583233e-02 -5.88127635e-02  2.34666243e-02 -2.82785599e-03]
 [-1.17334820e-01  2.55113319e-02 -7.88820311e-02  3.99360470e-02
   1.30708851e-02 -1.36251599e-02 -6.75690323e-02 -5.14389351e-02
   1.17246639e-02  1.61760568e-03  1.88914865e-01 -4.80137616e-02
   4.02377993e-02 -2.71332124e-03  2.08459701e-03 -2.04463769e-02
  -8.46556723e-02 -2.69575864e-02 -5.81283495e-03 -5.55304475e-02
  -8.77506509e-02  3.56183499e-02  2.03686103e-01  4.26202128e-03
   1.72908083e-02 -6.16450496e-02 -5.11280410e-02 -4.45956662e-02
   5.42832911e-02 -3.78745645e-02 -5.43987602e-02 -9.79225896e-03
   1.76931009e-01  1.11956730e-01 -6.02082089e-02  2.88802143e-02
  -2.02499516e-02 -7.58179948e-02 -1.05136875e-02  8.34834501e-02
  -7.18714530e-03 -5.59360422e-02 -1.59014836e-01  6.20951727e-02
  -1.14750592e-02  1.79092363e-02 -2.83221044e-02 -5.91315329e-02
   3.54598947e-02 -8.16173181e-02  4.14130725e-02  1.55982125e-05
   5.19611798e-02  8.61789472e-03 -4.60472703e-02 -1.25730792e-02
   5.55464067e-03  1.00841392e-02  4.28532884e-02 -4.53185961e-02
   3.26690339e-02  1.12139741e-02  2.44185179e-02 -1.09750703e-02
  -1.25566106e-02  1.50740191e-01  3.26417983e-02  2.03464646e-02
   5.27207293e-02  2.48521287e-02 -3.09094638e-01  1.10387005e-01
  -6.64117485e-02 -6.31598756e-02 -2.62376089e-02  4.96807024e-02
  -1.84468418e-01 -3.89216505e-02 -1.94551870e-01 -8.19135010e-02
  -3.28623392e-02 -2.77915653e-02  1.87532250e-02 -6.29794449e-02
   2.82903053e-02 -1.50114736e-02 -2.82964390e-02 -8.25375617e-02
   1.80155516e-03  2.09864378e-02 -5.34706116e-02  1.74689330e-02
   4.08793706e-03 -9.65955704e-02 -6.26537576e-02  4.49904986e-03
  -4.59513627e-02  1.78364627e-02  5.32832853e-02  1.45250365e-01
  -5.22390902e-02  4.09127586e-03  6.82471786e-03  7.15555670e-03
   1.37581090e-02 -5.82919680e-02 -6.88730627e-02  1.01068839e-01
  -4.74521853e-02 -4.61435132e-02 -1.00994110e-02  1.57399476e-01
  -3.17618959e-02  1.87604316e-02 -1.98919307e-02  1.59540549e-02
   7.31684687e-03  3.50173861e-02  6.06518425e-03 -1.02313394e-02
   7.91164339e-02 -3.35448496e-02  4.47674915e-02  4.96077836e-02
  -2.65762925e-01 -1.36554644e-01 -1.27124980e-01 -6.92401081e-02]
 [ 1.86241239e-01 -2.70195082e-02 -1.04473099e-01 -6.38683066e-02
   4.44850214e-02 -1.50454216e-04  2.73255054e-02  2.44463943e-02
   7.71316001e-03 -5.77891571e-03  8.34705029e-03  3.01838573e-02
   1.43456027e-01  2.62502730e-02  1.10294782e-02  2.60931496e-02
   1.57572597e-01 -5.94330803e-02 -7.29642361e-02  1.20322790e-03
  -7.78872333e-03 -8.84827152e-02 -9.02409840e-04 -6.36693239e-02
  -5.01243770e-02 -2.98661981e-02 -5.83040528e-03  3.23271528e-02
  -3.10338847e-02 -4.34468724e-02  3.40771973e-02  4.30213474e-02
  -4.14291173e-02 -1.02921791e-01  1.32438183e-01  4.47547585e-02
   7.06117647e-03 -9.16474499e-03  4.43132035e-03 -8.88921320e-02
  -3.74198668e-02  3.98318022e-02  1.74866781e-01  1.21277496e-02
  -1.25068165e-02  8.38683546e-02 -5.39106540e-02  4.58784588e-02
  -4.75674681e-02 -1.44279450e-01 -2.24682186e-02 -2.40279138e-02
  -7.19676986e-02  2.06004865e-02 -9.12785530e-02  9.55255330e-03
  -7.28457123e-02 -6.39594793e-02  1.44409105e-01 -1.02901468e-02
   2.71248538e-02 -6.34824187e-02 -5.32051101e-02  2.06456389e-02
   4.03911807e-02 -8.25373307e-02 -5.97556345e-02 -3.86679359e-02
   4.84370887e-02 -3.76340188e-02  2.18428820e-01 -1.31447047e-01
  -6.10078350e-02 -4.94761392e-02  4.70322110e-02 -4.25999165e-02
   4.31690328e-02 -3.72427702e-02  5.94648905e-02  1.26777381e-01
  -1.25633711e-02  4.18992564e-02 -1.39388517e-02 -5.38360002e-03
  -1.26201659e-01 -8.00298713e-03 -5.12854494e-02  1.19051645e-02
   2.34282669e-02  3.45147327e-02 -6.93609193e-02 -1.62391625e-02
  -2.63355505e-02  5.63044623e-02  7.08556846e-02  4.88206707e-02
   1.14487987e-02 -1.09331235e-02  3.46727185e-02  9.90349054e-02
   1.05830915e-01  5.28263077e-02  6.09864667e-02 -5.29657910e-03
   1.96493939e-02  3.49277891e-02 -6.77116215e-02 -1.20737910e-01
  -5.92431501e-02 -2.15232596e-02 -7.24814013e-02 -1.05319023e-01
  -4.10524681e-02 -2.10684054e-02  4.69377870e-03 -2.46593654e-02
  -9.62084308e-02 -3.75917293e-02  9.33850184e-03 -5.77940308e-02
   1.33542538e-01  3.05934343e-03  3.63504514e-02 -1.68953881e-01
   1.64712131e-01 -2.72513274e-02  1.57235339e-01  3.02323257e-03]
 [ 1.36178182e-02 -5.19813187e-02  2.92560067e-02  9.10060201e-03
   3.84821445e-02 -4.52651642e-02 -6.10473705e-03  3.37897837e-02
  -3.02918535e-02 -6.23385496e-02  2.76973024e-02  5.16441837e-02
   2.70378515e-02  1.56642720e-02 -3.22104320e-02  5.74576184e-02
   1.51957255e-02  3.07297800e-02 -4.96447310e-02 -1.40647022e-02
  -4.95272167e-02 -5.22215515e-02 -7.78825507e-02 -2.35565403e-03
  -6.30026758e-02  4.03439365e-02  1.39806187e-02  2.26020347e-02
   1.02708833e-02  6.89293770e-03  4.92083328e-03  2.86680553e-02
  -2.04229265e-01 -1.11092448e-01  1.01062477e-01 -3.61283906e-02
  -5.62135540e-02 -1.72266830e-02  1.80209354e-02 -8.94020253e-04
  -5.85220242e-03 -2.01422395e-03  7.44687691e-02 -2.75933761e-02
  -5.20200245e-02  4.17397730e-03 -7.62900664e-03 -6.68498576e-02
  -3.42706144e-02 -2.19066767e-03 -5.65869212e-02 -2.02413257e-02
   7.39556253e-02 -3.04776207e-02  2.59289257e-02 -9.22785625e-02
  -4.46512550e-02 -3.79980356e-02 -6.03476353e-02 -4.36240844e-02
   4.89329621e-02 -3.41266990e-02 -4.59175259e-02 -4.65604514e-02
  -3.59385461e-02  2.59143617e-02  8.87176022e-03 -1.15162984e-01
  -2.03699544e-02 -3.49383950e-02  1.85073003e-01  2.95942575e-02
   1.36254216e-02  4.58438322e-03 -2.89647356e-02 -1.36377141e-02
  -9.30572301e-03 -5.03778346e-02  1.09078139e-01  6.60517067e-02
  -4.19107229e-02  3.12880352e-02  1.26219215e-02  6.26815949e-04
   2.53519369e-03  1.11291148e-02  1.40947225e-02  4.70522679e-02
   2.90162861e-02  1.58666428e-02  1.26991440e-02  9.15039610e-03
  -1.18458439e-02  7.22006261e-02  1.40436161e-02 -5.90449609e-02
   8.14870745e-03  2.94566583e-02  4.85804528e-02  2.19913293e-03
  -7.07288906e-02 -4.91149575e-02  8.60106386e-03 -5.81949055e-02
   3.42634022e-02 -1.57036986e-02 -2.43426859e-02 -8.36101100e-02
  -7.90335909e-02 -2.78358981e-02 -5.18509522e-02 -5.45828007e-02
   3.46132480e-02 -9.67998989e-03 -5.64093888e-03 -1.10122776e-02
  -6.28269613e-02  5.78775331e-02  2.56463587e-02 -5.64532876e-02
   6.27480969e-02  9.24864132e-03  4.04309891e-02 -3.71696390e-02
   1.48744106e-01  5.50854839e-02  4.74131145e-02 -4.12709750e-02]
 [-3.12361699e-02 -8.22170451e-03 -5.06146885e-02 -7.50932544e-02
  -2.71974970e-02 -4.51351181e-02  6.67601973e-02  2.42252331e-02
  -3.15275490e-02  6.25185668e-02  4.36252877e-02 -4.53246683e-02
   4.93968874e-02 -8.10720865e-03 -4.36426885e-02  1.03390357e-02
  -4.81070168e-02  1.40331928e-02  7.55505404e-03  4.42168713e-02
  -7.55789690e-03 -5.34948222e-02  2.89242584e-02  2.36156844e-02
  -4.40182723e-02 -5.89296105e-04  1.59131587e-02 -2.56244130e-02
   4.34744880e-02 -7.19062760e-02 -6.42381161e-02 -8.46429728e-03
  -1.66921187e-02 -6.22754125e-03  4.52430584e-02  6.31409138e-02
  -7.28211403e-02 -7.55135193e-02  4.71943356e-02 -1.97262373e-02
  -7.99811911e-03  5.19853421e-02 -1.67883188e-02  4.63049412e-02
  -8.47908929e-02 -2.91572772e-02 -6.18966371e-02 -5.15969954e-02
   3.28053124e-02  4.03727107e-02 -2.97042113e-02 -5.53604476e-02
  -1.81324072e-02  4.09166962e-02 -4.10246402e-02 -3.30249928e-02
  -2.95991800e-03  3.13692191e-03 -4.36868370e-02 -2.93706590e-03
  -1.99046973e-02 -4.40963395e-02 -3.29725258e-02 -5.32202795e-03
  -7.08643869e-02  5.18126339e-02 -1.69835798e-02  2.89625283e-02
   1.26637821e-03  4.88412753e-02  1.13442075e-02  1.15818076e-01
  -4.86212522e-02 -6.44874498e-02 -1.52363433e-02  1.24099245e-02
  -4.76677045e-02 -3.99674363e-02 -1.45066217e-01 -6.23021759e-02
   4.73415628e-02 -3.86177725e-03 -3.66401635e-02 -2.13957913e-02
  -8.54130462e-03 -1.10747209e-02 -5.89296184e-02 -2.72973645e-02
  -1.61737837e-02 -4.40228954e-02 -9.72708836e-02 -7.01457215e-03
  -1.90274324e-02  2.30869595e-02 -4.75074444e-03  4.14397568e-02
  -2.49158237e-02 -3.72564467e-03 -2.32763246e-01 -2.31913999e-02
  -9.57537740e-02 -7.16222525e-02 -1.42340455e-02 -4.36390340e-02
  -3.21006440e-02  4.58182320e-02 -7.74928778e-02  5.06330580e-02
   3.82077582e-02 -1.29781738e-02 -3.78671512e-02  3.17780338e-02
   1.73418466e-02 -6.18025549e-02 -2.30178852e-02  3.74545939e-02
  -1.18946090e-01 -4.94730622e-02 -5.95919639e-02  5.79332039e-02
   4.22332494e-04 -1.42958714e-02 -1.67183895e-02 -9.36822295e-02
  -1.66706502e-01 -3.29039469e-02  4.22208756e-02 -1.64505765e-02]
 [ 3.79956290e-02  2.57391809e-03  9.24217794e-03 -7.00665712e-02
  -4.65470217e-02  2.96510980e-02  3.34883705e-02 -1.10671762e-02
  -9.49393772e-03  4.70686033e-02  4.14500087e-02  3.46982777e-02
   2.32284162e-02 -6.89728884e-03  8.29933677e-03 -7.09276572e-02
  -1.36118969e-02  2.81001348e-02 -4.13620658e-02 -3.66239101e-02
   3.93534862e-02 -3.38646956e-02  4.89755571e-02 -3.13868374e-02
  -1.48100527e-02 -2.23053969e-03  4.59113754e-02  1.96402967e-02
  -3.49982362e-03 -7.29425773e-02 -1.22343437e-04 -7.58206705e-03
   1.02212708e-02  2.39418093e-02  6.42151907e-02  6.14736155e-02
   2.61775609e-02  3.44556421e-02 -4.37242873e-02 -4.02859226e-02
   2.82688066e-03 -4.42490615e-02  2.77062207e-02  1.34132812e-02
  -8.81621987e-02 -2.04938762e-02 -5.40003255e-02 -6.21257871e-02
  -5.00226356e-02 -4.07923311e-02  6.78451434e-02 -2.27604564e-02
   2.93536652e-02  2.49464866e-02 -5.13448194e-02 -9.41607282e-02
   3.21248733e-02 -5.12621142e-02  1.86309703e-02 -1.93201192e-02
  -6.14217259e-02  6.10568114e-02 -1.50958672e-02  9.97645780e-03
  -7.83283636e-03  4.50047432e-03 -4.54707770e-03  3.21187042e-02
   2.09923368e-02 -2.20845677e-02  7.56518124e-03  6.00885861e-02
   2.79216701e-03 -2.93851458e-02 -6.00090772e-02  2.09288914e-02
  -2.33026017e-02  9.01217200e-03  2.98166685e-02  6.65774122e-02
  -6.67256629e-03 -1.52780935e-02  1.82909760e-04  6.10241294e-02
  -2.62051430e-02 -1.77353453e-02  3.99151668e-02 -1.21313540e-04
  -3.58942188e-02  1.59911271e-02 -4.04728651e-02 -3.50094587e-02
  -4.32008244e-02 -1.26471149e-03  4.83502112e-02  3.30383517e-02
  -6.54743016e-02  2.87665091e-02 -1.24756195e-01 -3.14909406e-02
  -5.17601371e-02  2.15054657e-02  5.78617258e-03 -3.15187424e-02
  -4.27837446e-02 -6.77916631e-02  1.22817385e-03 -3.79798876e-04
  -1.36641068e-02 -5.72665930e-02  2.95397639e-02 -4.79114661e-03
  -1.15523860e-02 -3.84969674e-02 -3.80043946e-02  2.80199144e-02
  -2.62072007e-03  2.63217371e-02 -2.41280552e-02  6.86301803e-03
  -3.41073200e-02 -4.90788110e-02 -8.43189191e-03 -1.87874585e-02
   5.77876717e-03  4.02618870e-02 -1.97918415e-02 -2.14246418e-02]
 [ 5.88343479e-02  6.80369849e-04 -7.75420591e-02 -4.59864736e-02
  -5.76876402e-02 -2.25762259e-02  1.21819481e-01 -5.39923273e-02
  -2.20858529e-02 -3.20206694e-02  1.43755659e-01  4.04753014e-02
  -9.72029045e-02  1.07190544e-02 -9.12844092e-02  4.62373830e-02
  -7.90597051e-02 -2.50997636e-02 -4.41639051e-02 -2.58457701e-04
  -2.74075586e-02 -5.52752949e-02  8.31175968e-02 -2.17234483e-03
   8.26309528e-03  1.40288338e-01 -5.54792536e-03 -3.80536392e-02
  -1.26900338e-02  3.47499177e-02 -6.05154708e-02 -4.56634387e-02
   1.32342845e-01  1.01099014e-01  2.51481906e-02  1.81228817e-02
   2.39986647e-02 -6.08862862e-02  2.94376593e-02 -4.70085721e-03
   3.36699001e-02 -5.06843403e-02  1.08910009e-01  3.52267199e-03
  -3.03912666e-02 -1.20336726e-01 -2.65853405e-02  9.54227580e-04
  -6.13664091e-02 -5.09848408e-02  6.92439824e-02 -4.62442897e-02
  -1.08909227e-01 -2.29404792e-02  2.33523939e-02 -2.82083359e-02
   2.30983533e-02  4.27659675e-02 -1.29994273e-01  2.90347897e-02
  -1.89202651e-02  2.06636637e-02 -2.58273333e-02 -3.51089076e-03
  -3.63229774e-02 -1.07544642e-02  1.19216982e-02  3.69616263e-02
   1.15002476e-01 -3.07290722e-03  7.01239556e-02 -2.59434521e-01
   1.47381471e-02 -5.02861813e-02 -6.05665259e-02 -3.67545336e-02
   1.33100816e-03  3.49228159e-02  8.89658332e-02  5.24123833e-02
  -5.29637747e-02 -3.10811233e-02  1.95313767e-02 -3.10884919e-02
   3.79384607e-02  3.62948067e-02 -4.22390699e-02  2.48507001e-02
   9.79383010e-03 -3.67917642e-02  1.86809450e-01 -4.92096990e-02
   3.69163938e-02 -3.45908627e-02  1.23941131e-01 -4.78937775e-02
  -3.83004844e-02 -1.30450306e-02  3.17192115e-02  1.62078381e-01
  -1.18924566e-02  1.17054256e-02  6.46966249e-02 -5.53834178e-02
   1.58410165e-02 -3.11128572e-02 -6.55834749e-02 -1.07050426e-01
  -8.11359733e-02  4.29634890e-03  2.59486623e-02 -7.70242289e-02
  -5.31418845e-02 -7.82203395e-03  1.08929491e-02  1.78700201e-02
  -6.06542826e-02 -8.57456177e-02  5.87393381e-02 -5.87074235e-02
   4.99104112e-02 -9.35722701e-03 -1.26505792e-02  8.07006806e-02
   4.22516093e-02 -2.22009383e-02 -2.11875528e-01 -1.69259049e-02]
 [-7.22932667e-02  2.46174596e-02  7.23390561e-03  1.21264488e-01
   9.44754854e-03 -1.14043625e-02 -6.77004009e-02 -1.13915108e-01
  -9.52684507e-02 -3.81141319e-03  9.71202329e-02  4.92262989e-02
   5.41119324e-03 -2.73768008e-02  1.37644820e-04 -4.90221828e-02
  -7.75451288e-02 -6.57186955e-02 -3.02508790e-02  4.39853817e-02
  -6.49488270e-02 -3.84414084e-02  2.03957334e-01 -5.88305853e-02
   2.60586683e-02 -6.57977164e-03  2.44417530e-03 -4.88716327e-02
   9.91685838e-02 -6.25806302e-02 -4.72867414e-02  2.21717972e-04
   6.62278906e-02  1.70039088e-01 -5.37159406e-02 -2.77618151e-02
  -5.54047935e-02 -3.04051936e-02  2.39072088e-02 -7.54355220e-03
  -4.73483540e-02 -2.18649348e-03 -1.64428875e-01  3.20586711e-02
   4.53618951e-02  2.27323212e-02 -1.08615579e-02 -1.68448882e-04
  -5.56354374e-02 -1.18875438e-02  1.81769989e-02 -5.16220741e-02
   2.62938850e-02 -2.65752599e-02 -6.24900423e-02 -1.00076646e-01
   2.84914719e-03 -4.05526273e-02 -5.01218326e-02 -7.44540393e-02
  -1.42293591e-02  1.17936619e-02 -4.89431247e-02 -3.31642963e-02
  -4.74043563e-02  9.99182314e-02  3.85602787e-02 -9.47936475e-02
   1.78987179e-02 -5.79151884e-02 -4.01773900e-01  1.59271836e-01
   1.86446253e-02 -1.41450120e-02 -7.32397810e-02 -5.04445843e-02
  -6.94863871e-02  1.09384302e-02 -2.43155330e-01 -4.90782373e-02
  -2.20713504e-02 -2.77468208e-02  2.43715327e-02 -5.91641553e-02
   4.80613746e-02 -3.63693535e-02  1.86384562e-02  3.31259891e-02
   3.70275155e-02 -4.21339571e-02 -8.36997703e-02 -5.94672784e-02
   4.51340489e-02 -4.92845327e-02  6.94080666e-02  3.57238296e-03
  -5.99650331e-02 -2.66654100e-02  3.36669050e-02  1.63177639e-01
   1.04135275e-02  1.64495334e-02  1.98622118e-03  3.15966718e-02
  -1.71712246e-02  9.56502510e-04  2.06770725e-03  8.38507935e-02
   5.76488934e-02 -4.08794582e-02 -6.33337647e-02  9.46132615e-02
  -5.60229295e-04  1.24218306e-02 -3.15910242e-02 -3.13930847e-02
   1.26231648e-03  2.53204163e-02 -6.45606369e-02 -3.46887782e-02
   2.69888490e-02 -5.48771843e-02 -5.48609495e-02 -1.10334475e-02
   1.39063001e-02 -1.27721936e-01 -2.70288885e-01  2.22796556e-02]
 [-1.46609833e-02  7.76577089e-03 -1.71489164e-03 -6.29096627e-02
  -4.46169823e-02  4.21176665e-02  4.94517433e-03  8.70271847e-02
   3.44454101e-03 -2.29941338e-01  7.44451657e-02  5.62484190e-03
  -1.21923536e-01 -1.37986578e-02 -6.37827292e-02  2.44720355e-02
   1.97534543e-02  1.69012267e-02  4.68553565e-02  1.76612269e-02
  -2.75980253e-02 -3.34201055e-03 -4.98005003e-02 -5.57705462e-02
   3.08328983e-03 -1.32257864e-01 -6.20075874e-02  4.23877351e-02
  -5.06148152e-02 -4.01675813e-02  4.80402634e-02  7.79179344e-03
  -5.67228198e-02 -2.57013179e-03  2.33634114e-02  4.48282473e-02
  -6.77657053e-02 -5.66751324e-02 -6.31983532e-03 -2.35012155e-02
   1.31483581e-02  1.88968014e-02  3.09596416e-02  2.28849147e-02
   7.26382583e-02  3.08878664e-02 -3.98842283e-02  1.58933848e-02
   2.69514155e-02 -2.69995704e-02  8.34345259e-03  4.24713977e-02
  -4.81223688e-03 -3.60229239e-02  8.09743553e-02 -1.01222927e-02
   2.39269771e-02 -1.09671075e-02 -1.06178358e-01  5.11217341e-02
  -3.52486409e-03  2.83896644e-02 -1.94631442e-02  2.98068952e-02
   7.25713419e-03 -2.37206090e-02  1.75160691e-02 -2.46463120e-02
  -1.33017182e-01 -9.95970815e-02  2.46142969e-02 -2.64459282e-01
  -4.69545415e-03  9.64380521e-03 -3.51061560e-02 -3.17542255e-02
   5.71694858e-02 -2.44951863e-02  7.37742409e-02 -4.88596857e-02
  -6.77666534e-03 -1.72915664e-02  4.65341806e-02 -6.73871636e-02
  -2.21867617e-02  2.37299409e-02 -3.58541077e-03 -5.98847680e-02
   1.03282472e-02 -4.47384082e-02 -1.26112208e-01  1.36437295e-02
   4.79509123e-03  6.18129857e-02 -7.57216439e-02  3.66256461e-02
   2.52493490e-02 -3.28437127e-02  2.64212452e-02 -4.28622216e-02
   1.06079362e-01  3.44848372e-02 -9.98457968e-02 -3.61880548e-02
   2.42530965e-04 -6.50383979e-02  3.81122530e-02 -1.32184312e-01
   1.20156948e-02 -1.27979992e-02  9.23073012e-03  3.04925777e-02
  -4.62158248e-02 -4.22947444e-02 -1.60614140e-02 -1.09967180e-02
  -6.60042465e-02 -9.58739966e-03  2.06684042e-02 -1.04969956e-01
  -2.51130238e-02  7.37485439e-02 -3.11757252e-02 -6.33847788e-02
   9.65428501e-02 -1.11837322e-02 -1.12471469e-01  3.62162362e-03]
 [-1.12317912e-01  2.13315897e-02  1.44580472e-02 -7.44852275e-02
  -5.86219057e-02 -3.78982387e-02  6.45546168e-02 -9.12141055e-03
  -6.31146505e-02 -9.44981799e-02 -4.42249654e-03  4.56810370e-02
  -3.00548762e-01 -4.71082069e-02 -5.90681694e-02 -3.52846682e-02
   4.62068617e-03 -6.45958493e-03  2.14760331e-03 -6.14662357e-02
  -2.37087552e-02 -5.05564027e-02 -5.41031845e-02  2.52280477e-02
   1.59898531e-02 -6.17995411e-02 -4.42135856e-02 -3.13432850e-02
  -1.41350299e-01  1.50291268e-02 -2.97880191e-02 -8.74787718e-02
   2.29915753e-02 -2.08104491e-01 -2.20225519e-03 -4.92584221e-02
  -8.28938850e-04  3.11340019e-02 -2.13438813e-02 -5.19343503e-02
   4.77593504e-02 -4.65903953e-02 -4.57601883e-02  3.41543816e-02
  -1.14552686e-02 -6.64411783e-02 -4.86570038e-02  2.56733205e-02
  -9.03219543e-03  6.75454587e-02  2.28278320e-02  3.16783111e-03
  -1.87973231e-02 -4.91877971e-03 -1.68112785e-01 -3.00164558e-02
  -2.34093349e-02  4.96797310e-03 -6.83446601e-02 -5.44374883e-02
  -4.25300226e-02 -4.05003922e-03 -3.87228429e-02 -1.83566958e-02
   1.93972792e-02 -5.21023106e-03  2.53108647e-02  4.26898561e-02
  -4.38498370e-02  2.05998104e-02 -4.59938403e-03 -5.32137528e-02
  -5.07067703e-02  2.87011508e-02 -5.66617139e-02  2.86559947e-02
   3.33597921e-02  9.22089443e-03  8.02141801e-02 -1.04378045e-01
  -5.32893240e-02 -2.03707088e-02 -3.82712223e-02 -1.37450360e-02
   1.69160757e-02 -3.79256420e-02 -6.22253232e-02 -2.07584463e-02
   2.61613186e-02  1.78463086e-02  1.42425988e-02  2.57038362e-02
  -6.25967756e-02 -7.83174559e-02  2.15016544e-01 -3.14055756e-02
   4.01208512e-02 -4.09559496e-02  3.39729227e-02  3.21439803e-02
  -1.24119800e-02 -4.12926190e-02  8.11901614e-02 -3.87867019e-02
   1.27053075e-03  1.78679843e-02  5.21958768e-02 -8.39863159e-03
  -7.62683805e-03  5.50994799e-02 -3.87339406e-02 -5.56168240e-03
   1.97899174e-02  3.46388519e-02 -4.56926674e-02 -2.18375027e-02
  -1.18657649e-01  3.58140375e-03  2.06429847e-02 -2.63478696e-01
  -5.90785779e-03  1.39101334e-02 -4.21136096e-02  1.07752182e-01
  -1.24844490e-02 -8.19115043e-02 -1.22052677e-01 -6.06693514e-02]
 [-2.40997002e-01  3.37525643e-02  4.87120897e-02  5.56417070e-02
   1.88282132e-02 -5.25748208e-02  9.96398553e-03  6.56224787e-02
  -4.53406386e-02 -1.37841299e-01  5.06024659e-02  3.35401334e-02
  -1.76876560e-02 -6.81588799e-02 -5.60872480e-02 -1.64899342e-02
  -3.48010957e-02 -2.33952589e-02 -2.26625334e-03  5.21654375e-02
   2.11925544e-02 -3.87292318e-02  3.68723534e-02 -4.76776697e-02
   3.52865644e-02  7.38027925e-03 -5.36561608e-02 -3.74371745e-02
  -9.59325209e-02 -4.18042764e-02 -6.31953552e-02 -6.52999282e-02
  -3.42135970e-03  7.25155175e-02  3.88158485e-03 -1.02041857e-02
  -8.04440826e-02 -3.39167453e-02  2.20230594e-02 -3.15168090e-02
  -2.13274565e-02 -6.14595674e-02 -3.37390527e-02 -4.70473431e-02
  -6.14667544e-03 -1.83237549e-02  3.49397026e-02 -6.34181798e-02
  -3.03071421e-02  7.91283548e-02 -4.41066362e-02 -2.26202961e-02
   2.43156627e-02  4.28803004e-02 -4.74870726e-02  1.33949742e-01
   2.55244877e-02 -4.35164049e-02 -1.37999430e-02 -6.26413990e-03
   1.10534951e-03 -6.44486025e-02  5.94330058e-02 -1.50127560e-02
  -7.39106070e-03  1.11153044e-01 -4.18509468e-02 -1.29325628e-01
   6.86246753e-02  2.69992240e-02 -2.39245266e-01  5.24747707e-02
  -3.58938575e-02 -2.88284626e-02  2.18196083e-02 -2.65534688e-02
  -7.29319304e-02 -3.36618237e-02 -1.22267373e-01 -2.20872000e-01
   1.88691430e-02 -1.32192466e-02 -3.48812044e-02 -3.48898657e-02
  -1.62528548e-02  4.53239307e-02 -1.43089909e-02  4.43014316e-02
   2.16793884e-02  3.00066844e-02 -2.35879403e-02 -5.13877869e-02
  -6.01912141e-02 -1.28077060e-01 -1.10406645e-01  9.30910744e-03
  -5.78368530e-02 -5.26854843e-02 -9.34019387e-02 -5.56663089e-02
  -9.34830159e-02 -6.01829477e-02 -1.73136257e-02  3.18845399e-02
   2.90931705e-02  3.80494259e-02 -1.00755142e-02  3.41692045e-02
  -9.10206232e-03  8.55503157e-02  5.17902756e-03  1.10114008e-01
   2.85734106e-02 -1.41095454e-02 -4.59589064e-02 -2.00937651e-02
  -2.90527921e-02  4.79728766e-02 -2.41239239e-02 -7.58312643e-02
  -9.94850770e-02 -4.66300659e-02 -2.71356050e-02  8.45094398e-02
  -6.94128349e-02  2.50765104e-02 -1.70463160e-01 -3.97551432e-02]
 [ 2.78726909e-02 -1.83663946e-02 -4.07721009e-03 -7.43377358e-02
  -5.76486215e-02 -1.53476242e-02  6.69800788e-02  2.74394415e-02
  -6.44875094e-02  1.21365553e-02  4.52408269e-02  3.63764819e-03
   7.47303367e-02 -6.40795603e-02 -1.06396481e-01  4.38612979e-03
   1.74634345e-02 -3.94286700e-02 -7.70680606e-02  2.07919087e-02
  -8.14128816e-02 -8.81723464e-02  1.00109447e-02 -5.37998863e-02
   1.57239903e-02  7.11616203e-02 -5.85580394e-02 -6.63799420e-02
   4.03865892e-03  1.28692528e-02  1.86705478e-02  4.15293053e-02
  -1.19475910e-04 -3.86202894e-02 -1.23962676e-02  8.81657656e-03
  -6.50814921e-02  8.81979242e-03  3.86749357e-02 -2.56209765e-02
   4.51935688e-03 -4.01031002e-02  5.33417519e-03  4.11320962e-02
  -6.65460899e-02 -1.73885152e-02 -5.33186644e-02 -1.70042329e-02
  -5.98270670e-02 -4.26693121e-03  1.61323417e-02 -2.94131190e-02
  -4.15419079e-02 -4.98630069e-02 -4.96425033e-02  2.71714479e-03
  -3.54438238e-02 -2.24247831e-03  7.73329437e-02 -2.14974321e-02
   1.64878853e-02  1.61286779e-02 -5.66291213e-02 -2.26756595e-02
  -5.84487431e-02 -4.47689369e-02 -3.87132168e-02 -2.54234876e-02
  -1.07307592e-02 -5.51139750e-02  5.01820669e-02  1.09349728e-01
  -4.17785756e-02 -7.28293806e-02 -6.51934668e-02  3.26381214e-02
   5.56845590e-02  3.15603940e-03 -1.45155769e-02  6.45058602e-03
   3.10929660e-02  3.43411490e-02  3.37797925e-02  1.80627704e-02
  -8.08221400e-02 -7.24666193e-02  3.29278149e-02  3.66050601e-02
  -3.15546654e-02  3.01967487e-02 -6.16225153e-02 -2.18882901e-03
  -4.05570790e-02  5.88525161e-02 -2.05474366e-02 -9.08185146e-04
   1.59749351e-02 -5.12975864e-02 -7.59054497e-02 -8.67558494e-02
  -8.17825843e-04 -5.89043051e-02  2.39925608e-02 -4.91502099e-02
  -6.38734549e-03  1.29787587e-02 -1.13292020e-02 -4.51575592e-02
   8.38236418e-03 -6.86176792e-02  5.13681322e-02  1.26796020e-02
   4.54506911e-02 -3.38302255e-02 -7.61184422e-03  3.62405404e-02
  -2.17842069e-02 -2.60932706e-02 -6.53653964e-02  1.44927939e-02
   4.11482565e-02 -4.01969925e-02 -6.20141849e-02  3.00956499e-02
  -6.13551736e-02  1.98347233e-02  1.87685934e-03 -4.62831706e-02]
 [ 2.33993456e-02 -1.18603688e-02  1.46537069e-02  4.28116973e-03
   4.27184924e-02 -3.39675546e-02  4.98193353e-02 -6.80808499e-02
  -7.30631500e-02 -1.21518604e-01  4.26282622e-02  1.18867727e-02
  -1.00415587e-01 -6.56461790e-02 -4.13481370e-02  2.95825824e-02
  -1.64653156e-02  3.94764431e-02 -4.93786298e-02 -5.60815632e-02
  -2.55870502e-02  2.05162074e-02  2.10722703e-02 -8.09472874e-02
  -6.60776794e-02  5.72944842e-02 -5.70617095e-02 -5.14840446e-02
   5.76639734e-02  4.04177196e-02 -5.27119525e-02 -1.25620887e-01
   2.63079256e-02 -8.85949237e-04 -5.60143664e-02 -3.91214564e-02
  -8.89186487e-02 -2.25752164e-02 -7.29496498e-03 -6.27565533e-02
  -2.13724524e-02  4.50710254e-03  5.55508770e-02 -5.08617945e-02
  -2.55691707e-02 -7.84553960e-02 -3.08397040e-03 -4.10045125e-02
   2.79076137e-02  1.02944590e-01 -4.21032645e-02 -1.37648387e-02
  -1.66754112e-01 -1.64818261e-02 -1.09795518e-01  2.73798052e-02
   2.28426121e-02 -1.43199284e-02 -1.75295055e-01  3.25392075e-02
  -6.94770440e-02 -3.02468538e-02 -4.60702069e-02 -6.65662289e-02
  -1.38910180e-02  9.75511521e-02  3.45692970e-02  3.25628631e-02
  -2.47088503e-02 -7.29605779e-02  1.55285716e-01 -2.22063035e-01
   2.39908472e-02 -6.31511882e-02 -1.42864930e-02  3.81947458e-02
  -1.45887118e-03  1.72221530e-02  1.33696189e-02  4.41420786e-02
   4.58608527e-04  2.61345562e-02 -6.53471276e-02 -1.28575442e-02
   1.04989205e-02 -4.76580262e-02 -1.39830811e-02 -6.18611760e-02
  -3.59362736e-02 -3.76716740e-02 -1.16425984e-01 -2.33290326e-02
   4.20321565e-04 -1.61239415e-01 -2.69778538e-02  3.23332585e-02
   2.26075668e-02  8.16463027e-03  5.46756610e-02  2.94705387e-02
  -1.04613148e-01  8.08230229e-03  2.08032742e-01  3.85481417e-02
  -2.21115761e-02  3.45184555e-04 -1.23895053e-02 -1.85116366e-01
  -8.15835297e-02 -5.16232252e-02 -1.39519777e-02 -4.01896723e-02
  -1.52075421e-02  3.09359338e-02  2.83970628e-02 -6.21067062e-02
   3.77788581e-02 -4.44758832e-02 -8.30419594e-04 -1.55163640e-02
  -4.01121862e-02 -4.48939763e-02 -1.68131292e-02  1.38820827e-01
   2.54791360e-02  6.83533400e-02 -1.36965454e-01 -2.66494555e-03]
 [-2.90027186e-02  2.70934068e-02  9.54506546e-03  4.15565148e-02
  -2.85243858e-02  4.93675731e-02 -8.26995596e-02 -7.76108215e-03
  -1.55529764e-03  7.90066198e-02  7.93746039e-02 -6.12463383e-03
   5.12161665e-02 -2.92239971e-02 -7.30755702e-02 -5.30795902e-02
  -1.41542524e-01  1.54829733e-02 -3.44116129e-02 -6.42348230e-02
  -5.60989343e-02 -3.57907973e-02  6.96102753e-02 -6.34747446e-02
   4.58600484e-02 -9.11248103e-02 -9.90023371e-03  7.14194030e-03
  -2.47642631e-03 -5.54130152e-02 -1.99446604e-02 -4.58655544e-02
  -2.61707082e-02  1.14522159e-01 -1.53099941e-02 -3.32426168e-02
   1.24244792e-02 -1.44600160e-02 -4.39944454e-02 -4.34555672e-02
   4.15112339e-02 -3.44744213e-02 -2.03142967e-02 -1.12184952e-03
  -6.60370514e-02  2.07987651e-02  2.38236599e-03  1.78735349e-02
  -5.40731773e-02 -4.43521030e-02 -1.04236536e-01 -4.40444723e-02
  -2.22667605e-02 -1.04323560e-02  1.36354659e-02 -1.59749642e-01
  -8.68661106e-02 -1.36934454e-02 -1.39219640e-02  9.32288996e-04
  -4.84710373e-03 -3.18758152e-02  7.33913481e-03 -2.88630091e-02
  -6.15216233e-02  8.20012242e-02  4.88283336e-02 -9.77643058e-02
   3.13057192e-02 -6.78291917e-02 -3.61072302e-01  1.66833252e-01
  -7.53172114e-02  2.30031237e-02  2.36205347e-02  2.25491822e-02
  -4.36500348e-02 -4.67138365e-02 -1.82340875e-01 -9.60076004e-02
   2.65568607e-02 -4.34039570e-02  4.42613065e-02  2.32413933e-02
  -5.31320982e-02  2.47895122e-02  1.50601473e-02 -6.55971542e-02
   1.36457989e-02 -4.97491807e-02 -6.77170977e-02 -1.17047019e-02
   9.96128935e-03 -4.63085957e-02 -7.37651763e-03  5.32406755e-02
   1.49373151e-03 -3.22127454e-02  5.85076325e-02  6.24185726e-02
  -7.71213276e-03  1.72533386e-03 -3.16392481e-02 -2.82813944e-02
   1.71217583e-02 -2.97741648e-02  3.91914770e-02  2.95612216e-02
   1.83660127e-02 -5.56380935e-02  5.19875661e-02  4.86448146e-02
   1.23095978e-02 -3.09556490e-04  4.31245007e-02 -6.17465898e-02
  -6.02915175e-02 -2.37938873e-02  5.46429632e-03  6.94337934e-02
  -3.59350350e-04 -9.15440451e-03  2.39012744e-02 -9.22970027e-02
  -5.46333157e-02 -1.46570265e-01 -4.06713523e-02 -8.90565068e-02]
 [ 7.79339895e-02 -1.94148589e-02 -9.03479010e-03  4.60012220e-02
  -3.63214943e-03  4.04430088e-03 -7.84300081e-03 -9.29141790e-03
   2.22265907e-02 -1.25616103e-01  7.92140067e-02 -4.68664281e-02
  -1.52674735e-01 -4.27481271e-02 -3.37784775e-02  1.35987028e-02
   1.06418289e-01 -1.73878111e-02  3.48930955e-02 -5.46941981e-02
  -5.59156723e-02 -3.28006111e-02 -5.45397820e-03 -6.12245798e-02
   4.79029715e-02 -1.14853680e-01 -2.06146622e-03  1.41890449e-02
   2.35133078e-02 -8.86395760e-03 -1.48122385e-02 -7.52625465e-02
  -2.32257135e-02 -7.15671405e-02  1.03491507e-01 -3.12063918e-02
  -5.18515036e-02 -9.48467385e-03  4.97100614e-02  5.44911027e-02
  -6.22681379e-02  5.63209644e-04  8.27953964e-02  1.95049644e-02
   3.49877775e-02 -2.85719219e-03 -4.03182618e-02 -3.03331417e-05
  -6.68000728e-02 -5.72465807e-02 -6.41567186e-02  4.54085413e-03
  -8.89622420e-03 -1.18441917e-02  3.24845202e-02  1.23627586e-02
   3.31653804e-02  2.09808815e-02 -1.39514685e-01  1.33463228e-02
  -3.51329036e-02 -1.61158442e-02 -5.04853856e-03  2.47489717e-02
  -4.18891311e-02 -6.43295348e-02 -1.54346935e-02 -4.54245880e-02
  -1.28992245e-01 -1.55933574e-01 -2.14736834e-02 -1.86546504e-01
  -4.37035486e-02  5.42214885e-02  2.66301017e-02 -3.28019969e-02
   7.41371140e-02 -1.64084304e-02 -2.33038591e-04  3.97403017e-02
  -5.41045936e-03 -7.02403560e-02  1.36916982e-02  2.13557389e-02
   1.19168556e-03 -3.48010240e-03 -5.13511673e-02 -2.88409647e-02
   1.61668565e-02  3.12384516e-02 -8.76276940e-02 -4.12701908e-03
  -2.21379846e-02  3.97211909e-02 -2.01788526e-02 -1.84295257e-03
  -5.15674567e-03 -2.25753542e-02 -7.32065458e-03 -4.08195145e-02
   5.08765951e-02  2.64535956e-02 -2.15727389e-02  2.40351018e-02
   2.02467423e-02  2.16284320e-02  2.66364682e-02 -4.03336845e-02
  -4.66089062e-02  5.01919687e-02  4.53406908e-02 -3.03831883e-02
   2.14840788e-02  8.55190959e-03 -5.99500202e-02  5.33757024e-02
  -2.74870638e-02 -5.58813699e-02 -5.37309870e-02 -5.11469468e-02
  -1.29719628e-02 -1.36389472e-02 -5.73268496e-02  2.42737960e-02
   1.02700450e-01 -5.46539612e-02 -5.30374981e-02 -5.57644479e-02]
 [-1.31686730e-03 -3.64596434e-02 -9.18311067e-04  2.04802807e-02
   2.46963184e-02 -5.81887998e-02  3.03272456e-02 -3.61602195e-02
  -3.49100605e-02 -1.15792461e-01  5.84613644e-02  9.12389085e-02
   2.99510732e-02 -5.33077829e-02 -6.67305887e-02 -1.08407266e-01
  -5.44806337e-03 -2.19204780e-02  5.57698347e-02  2.03665029e-02
  -2.94929668e-02 -4.52696346e-02 -2.86735669e-02 -3.91504206e-02
   3.60583812e-02  9.64130238e-02 -2.50893924e-02  4.40980382e-02
  -3.86993214e-02 -6.36056662e-02 -2.03312710e-02  1.23976525e-02
   3.90611999e-02 -1.60132095e-01  7.38565549e-02 -6.40698075e-02
   2.14919634e-03 -1.31214643e-02  3.35609429e-02 -3.14569958e-02
  -5.29574975e-02  3.44426036e-02  9.75672621e-03  2.03306563e-02
  -8.29623640e-02  3.48209739e-02  2.34545767e-02 -2.28782538e-02
  -3.29435878e-02  1.07306488e-01  2.76389439e-02 -4.49687541e-02
   5.34513593e-02  5.01976348e-02 -2.79684048e-02  9.33689773e-02
  -2.00407822e-02 -1.90680940e-02 -1.72941893e-01 -4.63567488e-02
  -6.04169555e-02 -5.93647026e-02  3.77290137e-02  4.95848916e-02
  -1.08831394e-02 -7.30424300e-02 -8.96660797e-03 -4.42640595e-02
  -9.50916857e-02  8.84967968e-02  1.61263376e-01 -9.51351300e-02
  -1.93165336e-02  7.03585194e-03 -7.10715400e-03 -5.45712039e-02
   1.64999902e-01  2.40149982e-02  9.29608867e-02 -3.26187164e-03
  -3.90102603e-02  2.40247827e-02 -9.72330198e-03  2.99205538e-02
  -4.63448130e-02  4.07125009e-03  4.43841890e-02 -5.16153276e-02
  -3.81953381e-02 -3.30500789e-02  2.76077669e-02  5.65323904e-02
   6.39609480e-03 -4.95549403e-02  1.01264477e-01  3.41723710e-02
   4.22658436e-02 -1.93616338e-02 -9.60306153e-02 -8.30461178e-03
  -2.30453648e-02 -2.81319246e-02 -3.83686577e-03  4.64001633e-02
   4.00493592e-02 -4.20248993e-02 -4.68296297e-02  1.14692785e-01
  -6.60830662e-02  6.05955906e-02 -1.07080741e-02  8.72889683e-02
  -3.11274473e-02 -3.62986587e-02 -7.11583868e-02 -3.91985178e-02
  -8.53542313e-02 -4.75821644e-02  1.95506196e-02 -1.15164788e-02
  -5.40156625e-02  4.66873646e-02  1.01856375e-02  6.08749762e-02
   1.22368626e-01  1.09217972e-01 -1.08136177e-01  3.11939046e-02]
 [-8.97110477e-02  1.53512438e-03 -3.00949700e-02 -5.28870821e-02
  -1.21105416e-02  2.43011340e-02  9.95635912e-02 -6.87996969e-02
   2.59471629e-02 -6.49945661e-02  2.53335778e-02  3.55826765e-02
  -1.13357842e-01 -4.93931063e-02 -9.42228958e-02 -7.26833194e-02
  -1.04708225e-01  3.51263657e-02 -1.34437187e-02  3.31838317e-02
   6.10823929e-03 -2.40423102e-02  1.07618779e-01 -2.41800168e-04
  -3.14034857e-02 -1.00625560e-01 -6.07943104e-04  3.95514034e-02
  -4.98789810e-02  4.77100499e-02 -6.65030926e-02 -9.06212851e-02
   1.08091511e-01  8.79161656e-02  4.55558151e-02  4.13313583e-02
  -1.36859249e-02 -6.29490614e-02 -1.23800067e-02  1.78350247e-02
   1.97111946e-02 -2.39806101e-02 -1.70316890e-01 -4.22974937e-02
   1.29097328e-02 -8.92107859e-02 -4.55348231e-02 -2.72536278e-02
   1.96600650e-02  4.97842021e-02 -7.23412409e-02 -5.22712655e-02
   5.43895066e-02  1.03289234e-02 -1.11810870e-01  1.07685417e-01
  -6.25065789e-02  7.34007638e-03 -8.21141452e-02 -5.93126677e-02
  -5.01798242e-02  3.34125082e-03 -1.37745626e-02 -4.21488993e-02
  -6.52848035e-02  3.09244543e-02 -3.67340669e-02 -5.41892014e-02
   2.07827799e-02  2.77492478e-02 -1.61983773e-01  5.16926795e-02
   4.44686078e-02  4.07300144e-02  1.28562087e-02  2.94427201e-02
  -4.46824320e-02  4.95972075e-02 -3.40575874e-01 -2.09294721e-01
   2.30559669e-02  4.00770977e-02 -5.47234938e-02 -6.35553896e-02
   6.12771846e-02 -8.78462940e-03  2.42396910e-03  5.08369952e-02
  -5.55972382e-02 -8.58586375e-03 -1.32623732e-01  3.80786299e-03
  -5.87984100e-02 -1.32726878e-01 -8.10106024e-02 -3.07005960e-02
  -7.00959265e-02 -4.84848358e-02 -1.53289780e-01  1.50508098e-02
  -2.65615387e-03 -1.21758841e-02  1.93952546e-02  3.92238833e-02
   6.91827312e-02 -1.11393891e-02  4.40511592e-02 -1.46602653e-02
  -8.03288594e-02 -5.95324114e-02  8.28727242e-03  2.14571804e-02
  -3.03291511e-02  4.42181230e-02  4.06070277e-02 -5.22197075e-02
  -1.44327348e-02  1.95585918e-02 -2.98940879e-03 -1.21051468e-01
  -2.25559305e-02 -1.93950105e-02  5.37720546e-02  6.73044622e-02
  -1.80400282e-01 -1.70400858e-01 -4.48315330e-02  4.47301473e-03]
 [-1.33407656e-02  1.79907847e-02  1.55482739e-02 -8.29181522e-02
  -1.74852349e-02 -5.74732088e-02 -1.24395778e-02  1.76316164e-02
  -1.18326195e-01 -2.45502833e-02  4.29479359e-03  7.99512863e-03
   4.23372947e-02  1.46077927e-02  8.77688639e-03 -3.87302972e-02
  -8.24846402e-02 -1.21693080e-02 -1.26881590e-02  3.34116817e-02
   7.44462805e-03  6.96644885e-03 -5.43354899e-02 -8.06703344e-02
   1.82162784e-02  6.06685206e-02  1.31574750e-03 -8.16018581e-02
  -1.08377105e-02 -5.53819053e-02 -2.43273843e-02 -2.37701228e-03
   1.81274638e-02  2.93316469e-02  2.60426179e-02 -7.58519396e-02
  -7.69959092e-02 -3.17086838e-02 -3.59933004e-02 -4.92893681e-02
  -4.93619256e-02 -8.70303810e-03 -6.52578324e-02  3.79752144e-02
  -1.50074875e-02 -9.37008020e-03  4.29226533e-02 -5.09502813e-02
  -4.48750071e-02 -2.39975993e-02  6.06020205e-02 -1.85991032e-03
  -7.57615939e-02 -7.75549263e-02 -5.62148020e-02  2.58862460e-03
  -4.07940596e-02 -2.69333944e-02  3.21244225e-02 -2.69113593e-02
  -6.30959347e-02 -1.49783567e-02  2.13981643e-02  4.17051800e-02
  -9.36798006e-03  6.70641959e-02 -2.17309985e-02  3.52024883e-02
   1.63670536e-02 -1.06117286e-01  2.64706053e-02  8.41128230e-02
  -4.79263403e-02 -2.93388963e-02 -8.76619145e-02  1.40068009e-02
   3.75763737e-02 -2.60750018e-02 -3.61962616e-02  1.62812639e-02
  -1.69274360e-02 -4.77328375e-02 -3.47221084e-02 -4.21601050e-02
  -1.92131512e-02  9.50735621e-03  3.34105752e-02  2.51193922e-02
   1.40483426e-02 -5.42640612e-02  9.61509626e-03 -5.32469433e-03
  -1.97453294e-02  2.49328930e-02  5.81908040e-03 -4.39020060e-02
  -1.60920955e-02 -3.88540179e-02  3.46358009e-02  1.24897687e-02
   1.14524439e-02 -4.87002395e-02 -3.88603024e-02 -6.79258779e-02
  -7.03755766e-02 -7.53905624e-02 -1.71350893e-02 -8.32238793e-02
   6.83645308e-02 -4.66628522e-02 -4.35913019e-02 -3.58934700e-02
  -4.32721600e-02 -2.54550166e-02  2.01221053e-02  3.44192609e-02
  -1.18032649e-01 -9.09517799e-03 -6.15040846e-02  2.64990740e-02
   3.41840135e-03 -6.55267015e-02 -6.46170676e-02 -8.34934860e-02
  -5.90651110e-02  6.21486530e-02  5.32131344e-02 -1.59458967e-03]
 [ 1.11027189e-01 -1.32994251e-02 -7.24243419e-03 -6.74929991e-02
  -6.30577952e-02 -3.64870392e-02 -3.20141166e-02 -8.37899670e-02
   1.69170741e-02 -1.51549190e-01  9.67156366e-02 -2.57558264e-02
  -1.06698990e-01  3.25425416e-02 -1.30276859e-01 -4.73994873e-02
  -5.74471131e-02 -2.30009593e-02  1.29209049e-02  1.40630146e-02
   1.99962910e-02 -4.46878597e-02 -3.16129923e-02 -8.59435461e-03
   2.27656439e-02  1.94308758e-01 -3.98697108e-02 -4.21538539e-02
   3.90235358e-03  1.82995852e-02  7.40504544e-03  8.05145781e-03
   5.45581430e-02  1.04477264e-01  8.99105147e-02  4.36100317e-03
  -5.28659932e-02 -3.38961110e-02  1.85949225e-02 -1.70249082e-02
  -3.06159984e-02 -2.02085301e-02  2.10894700e-02  3.76860541e-03
   2.81089228e-02 -3.94664705e-02 -3.43229361e-02 -3.33474278e-02
   4.36499342e-02  1.72357727e-02 -3.99029069e-02  1.13284104e-02
  -6.27589822e-02  1.68560166e-02  1.44556358e-01 -5.21039031e-02
  -6.31977990e-02 -1.95869571e-03 -8.09875429e-02  2.17830464e-02
  -2.77142618e-02  1.33864731e-02 -6.29757158e-03 -6.80541098e-02
   5.51905541e-04  5.40708080e-02 -4.27739583e-02  4.56002504e-02
   1.53249785e-01 -4.13780138e-02  5.50263450e-02 -1.60500139e-01
   2.23912094e-02 -3.92826227e-03 -5.30902706e-02  3.40969451e-02
   1.87621504e-01  4.02070135e-02  2.84970384e-02  2.37687789e-02
  -6.05315529e-02  2.22876128e-02  1.78108260e-03 -5.28644472e-02
  -6.58694655e-03 -5.16776033e-02 -2.70804483e-02 -4.75698002e-02
   3.30198891e-02 -6.51765317e-02 -1.06216401e-01 -3.39226946e-02
  -2.32845899e-02 -7.25290403e-02  3.88170555e-02  3.67467701e-02
   1.21052023e-02 -6.17332198e-02 -2.69737951e-02  1.27192761e-03
   2.31740233e-02 -5.77647090e-02  5.17133661e-02 -8.49101786e-03
  -2.92827711e-02  4.34621833e-02  4.58641537e-02 -8.70739445e-02
  -1.01512577e-02 -1.16470292e-01 -5.84332496e-02 -3.89360972e-02
   2.41687987e-02  1.26744993e-02  2.42718831e-02 -3.25560421e-02
  -6.38850182e-02 -2.62468066e-02  2.13893168e-02 -5.28136417e-02
   7.13502392e-02  5.00346012e-02 -1.83960423e-03  9.25217345e-02
   5.70081249e-02 -4.05343547e-02 -2.30437871e-02 -5.74108697e-02]
 [-6.75792396e-02 -6.39023334e-02  3.08981836e-02  1.47714047e-02
  -4.73341979e-02  5.85254654e-02  2.86621973e-03 -3.65186692e-03
  -1.34731345e-02 -9.93340835e-03  6.63377419e-02  8.67151469e-03
   9.25063156e-03  5.96566461e-02 -3.37663926e-02  2.55419984e-02
  -2.10934684e-01 -6.00249246e-02  1.82456020e-02 -4.04564925e-02
  -6.09643608e-02  4.76729460e-02  9.02246311e-02 -8.36343989e-02
   3.43363583e-02 -1.06393211e-01 -4.21968214e-02  3.54543030e-02
   2.41505951e-02  4.01484640e-03  1.12505956e-02 -5.91410510e-03
   3.48265246e-02  1.47063836e-01 -6.57931045e-02 -5.17415181e-02
  -8.55032951e-02 -4.02331240e-02  1.21697481e-03  6.40798956e-02
   2.04325859e-02 -1.55841596e-02 -6.52895942e-02 -3.84698547e-02
  -8.40533823e-02 -1.03758045e-01  4.21096087e-02 -2.42734160e-02
   2.10283920e-02 -7.85123035e-02 -6.29484802e-02  6.12007380e-02
  -3.45761441e-02  8.52649566e-03  1.24614574e-02 -7.93706849e-02
   3.60917263e-02 -5.59736267e-02 -3.79129499e-02 -4.59893048e-02
  -3.71138342e-02  3.62361819e-02 -2.60048807e-02  5.07990969e-03
  -2.03097500e-02  4.04043011e-02 -1.85001753e-02 -4.96136285e-02
   1.50794670e-01 -1.62510365e-01 -3.14244837e-01  6.93351328e-02
   1.24947131e-02 -3.94654460e-02  3.68779488e-02 -3.74024734e-02
  -1.54639959e-01  1.26583967e-02 -2.43434116e-01  6.30872324e-02
  -2.97027547e-02 -1.46976265e-04  1.50383385e-02 -3.68812978e-02
  -8.72082077e-03  1.60397757e-02 -2.55126245e-02  4.60668392e-02
  -4.15734984e-02  6.14311844e-02 -1.55442253e-01  3.86398402e-03
  -4.00415212e-02 -8.44085813e-02  5.89332432e-02 -3.76175009e-02
   3.91279683e-02  4.79359888e-02 -4.66654785e-02  5.59168011e-02
   2.65316642e-03 -1.14458069e-01 -2.05860138e-02 -4.22748625e-02
  -3.95732187e-03 -4.56251726e-02 -4.57120575e-02 -5.33182807e-02
  -1.75508577e-02 -7.65387192e-02  6.57532364e-04  9.33826864e-02
  -2.19739899e-02 -5.19649275e-02  1.71889120e-03 -7.77608948e-03
  -1.52159035e-02  1.52727384e-02  1.72965489e-02  6.81956336e-02
   7.67766982e-02 -3.57974619e-02 -6.98930933e-04 -4.69543263e-02
   9.35394838e-02 -1.76650241e-01 -1.02798067e-01 -5.35524413e-02]
 [ 8.02430212e-02  3.62134501e-02 -9.09626409e-02  7.73107111e-02
   7.45339366e-03  4.73078601e-02  3.93548831e-02  9.89000313e-03
  -4.00466509e-02 -8.44790190e-02  5.47783114e-02  4.30468321e-02
  -7.73390606e-02  4.95222248e-02 -5.58053404e-02 -3.47736068e-02
   4.07497026e-02 -4.78160195e-02 -3.66054988e-03 -6.11304911e-03
  -1.00030443e-02  6.33755641e-04  1.98760573e-02 -5.54235168e-02
  -4.32530940e-02 -8.65991935e-02  3.82574601e-03 -5.94302565e-02
   8.16030726e-02 -4.44855839e-02  4.23487499e-02 -3.92265059e-02
  -8.18606615e-02 -8.56540203e-02  6.59522861e-02 -2.68910415e-02
  -5.02585806e-02  3.69434096e-02 -1.93980522e-02 -4.98265103e-02
  -5.65863140e-02  3.44250016e-02  1.46538287e-01 -4.74119894e-02
  -2.80867033e-02  5.61581813e-02 -6.09924495e-02  1.16266264e-02
  -5.52170873e-02 -1.17572732e-01 -7.12475553e-02 -3.98406722e-02
  -2.01489404e-02  4.58965264e-02  5.82912713e-02  1.17905647e-01
  -4.83775027e-02 -7.01500988e-03 -8.24061856e-02 -6.36785245e-03
  -4.82943580e-02  1.54366950e-02  3.74721624e-02 -2.09665261e-02
   4.05435823e-03 -1.73560139e-02 -2.48282570e-02 -9.18626413e-02
  -1.11095458e-01 -1.01680711e-01  7.01556280e-02 -2.05564350e-01
  -3.21621113e-02 -6.32357150e-02 -5.78497164e-02  4.13661823e-03
   8.05819349e-04 -5.70072308e-02  1.67729437e-01  4.69065495e-02
  -3.16890632e-03 -5.17653562e-02  3.38099338e-03  4.27407548e-02
  -6.30815029e-02  6.03046734e-03 -7.09023606e-03 -1.93423312e-02
   3.63722481e-02  3.29839960e-02 -1.09860208e-02  5.21922819e-02
  -5.11700213e-02 -4.72514937e-03  7.47051369e-03  1.26114972e-02
  -2.40850020e-02 -2.91955434e-02 -6.88701794e-02  3.40324058e-03
  -1.29421100e-01  4.51091565e-02 -1.93389669e-01 -4.08585854e-02
  -6.09150939e-02 -2.61983648e-03 -8.43476318e-03 -7.22488342e-03
  -3.49581167e-02  3.61882546e-03 -1.30689098e-02 -5.30132651e-02
  -4.84907664e-02 -5.49327284e-02  2.02298607e-03  4.28432226e-02
  -6.27339929e-02 -2.97352206e-02 -5.59766032e-03  4.41024713e-02
  -5.01272175e-03 -2.61636265e-02  1.21004693e-02 -2.48857848e-02
   1.07502237e-01 -1.19597493e-02 -1.27269089e-01 -8.21215566e-03]
 [-5.74423186e-02  3.34059075e-02  5.45754796e-03 -1.43781723e-02
  -1.27418209e-02  4.46303561e-02  7.48543292e-02  1.35952756e-02
   1.97748207e-02 -1.13781810e-01 -2.30226759e-02  1.92922745e-02
  -1.11330025e-01  2.71127578e-02  2.67799124e-02  2.23164391e-02
   6.19139224e-02  4.45276387e-02  2.21163984e-02 -8.83549452e-03
  -2.20777430e-02  2.74433699e-02 -4.94980849e-02 -2.20952015e-02
  -3.86125632e-02  6.84461277e-03 -5.88860884e-02  2.28456650e-02
  -1.36004373e-01 -4.97568101e-02 -4.37489189e-02 -3.88911553e-02
  -5.87624200e-02 -2.42640711e-02 -5.96157275e-02 -4.38016206e-02
  -7.35094994e-02 -3.70462053e-02  2.37952601e-02 -1.08216479e-01
  -5.51662892e-02  9.57159977e-03  1.46616781e-02  2.46711690e-02
   3.37592177e-02  1.22250229e-01 -1.70858006e-03 -4.36586961e-02
  -1.44950636e-02  1.46239966e-01 -8.14980641e-02  3.61332037e-02
   5.96820042e-02  1.73730534e-02 -3.11728328e-01  2.35367000e-01
  -2.13031285e-02 -1.07916594e-02 -3.25505018e-01  7.35831037e-02
  -5.11642434e-02 -5.39623015e-02 -2.45928653e-02 -1.35080731e-02
  -4.30954620e-02  7.41052115e-03  3.90874483e-02 -2.26770528e-02
   1.89375654e-02  5.80635108e-02  1.16983093e-01 -2.72244930e-01
  -3.15254219e-02 -3.14475372e-02 -3.68843116e-02 -9.18585341e-03
   1.97834209e-01  3.31151299e-02  1.17301434e-01 -6.28728420e-02
   3.54681946e-02  1.16146794e-02  2.51275748e-02 -3.05118825e-04
  -7.99642429e-02  1.04152029e-02 -2.76290998e-02 -4.77677546e-02
   8.39295425e-03  1.81800779e-02  7.74133876e-02 -2.72562988e-02
   3.06205824e-02 -1.63811818e-01 -4.47154045e-02 -1.38900960e-02
  -4.63309772e-02 -8.29720497e-03 -3.61686200e-02 -1.39512513e-02
  -5.15724532e-02 -4.92735708e-04 -7.96661228e-02 -1.40567496e-02
   2.62930244e-02 -6.27904385e-02 -6.03557657e-03 -3.93492654e-02
   2.31516291e-03  3.95498313e-02 -9.99592151e-03 -7.14363307e-02
  -1.78497937e-02 -7.02627376e-03 -1.73358656e-02  1.07810367e-02
  -1.04137108e-01  3.27415764e-02 -5.13119157e-03 -4.47744802e-02
   4.04142542e-03 -2.04436667e-02  1.83506608e-02  4.58507463e-02
  -4.24336381e-02  1.58341393e-01 -5.65767884e-02 -2.37870608e-02]
 [-5.09124175e-02 -5.42365760e-02 -3.28726359e-02 -4.31807302e-02
  -3.53370514e-03  1.10318977e-02  5.48744090e-02 -9.33443755e-02
  -5.68620004e-02 -6.14330769e-02  1.09087989e-01  3.45418230e-02
   1.79366376e-02 -1.21152336e-02 -1.12352803e-01 -5.59704890e-03
  -1.96743459e-01 -7.04716003e-05 -3.88381183e-02  3.51815373e-02
  -4.41460535e-02  3.63120623e-02 -1.62197314e-02  1.51723782e-02
   4.35180850e-02 -1.45717133e-02 -1.01225534e-02  3.01338686e-03
  -3.39440703e-02  4.17203754e-02  3.29539329e-02 -6.01057112e-02
   5.98644326e-03  7.50494599e-02  5.17110201e-03 -5.16400598e-02
  -4.83420342e-02 -7.85367712e-02 -3.52835357e-02  2.80670710e-02
  -2.92004608e-02 -1.80069599e-02 -1.92325890e-01  3.86596583e-02
  -8.67768824e-02 -3.10644340e-02 -4.29992005e-03 -6.52474612e-02
   1.14493771e-02  3.60813327e-02 -9.55122858e-02  1.03821261e-02
   1.22499809e-01 -1.89764742e-02 -8.69054571e-02  6.38772696e-02
  -3.33321728e-02 -8.67932662e-02 -1.25067443e-01  1.60179064e-02
   1.45681016e-02 -1.62019953e-02 -6.50693104e-03 -2.05582026e-02
  -8.64890404e-03  7.63904825e-02 -5.90745024e-02 -1.57451063e-01
   7.82686248e-02 -6.27475381e-02 -2.12171953e-02  1.03650875e-01
  -4.94964458e-02  8.14406388e-03 -2.47127376e-02  5.12182228e-02
  -5.42964377e-02 -1.03429938e-02 -2.17279524e-01 -2.26051196e-01
  -5.99236861e-02 -7.26438388e-02  1.73332784e-02 -5.47675341e-02
   2.52711326e-02 -4.32032309e-02 -1.25405649e-02 -6.01811074e-02
   1.72650162e-02  4.33471203e-02  2.69981232e-02 -6.47744536e-02
  -4.64015752e-02 -8.20015743e-02 -2.71976162e-02  3.29706632e-02
  -1.22105423e-02  2.86483020e-03 -2.11400330e-01 -3.31205688e-02
   5.21603599e-03  1.33871473e-02  5.09340502e-02  3.62301171e-02
   5.40557206e-02 -3.92878056e-02 -4.57913913e-02  1.22256450e-01
  -1.80128831e-02  4.76960987e-02 -1.06473602e-02  5.92484139e-02
  -5.38457930e-02  2.71783397e-02  1.69228334e-02 -4.99994829e-02
  -1.81899723e-02 -4.23437469e-02 -2.60276943e-02  3.97596322e-02
   8.65418278e-03  3.05871535e-02  3.65037285e-02  2.84715444e-02
   1.40471915e-02  7.08244089e-03  5.72024705e-03 -2.95462906e-02]
 [ 3.84434946e-02 -4.45330376e-03 -9.31990147e-02 -3.90839987e-02
   1.59327649e-02 -4.98997280e-04 -3.02514993e-03 -5.72241750e-03
  -2.77184173e-02  4.56684642e-02  4.15787995e-02  2.14206986e-02
   1.91738885e-02 -6.43949136e-02 -3.13870199e-02 -5.97945554e-03
  -9.31161717e-02 -1.35334125e-02 -6.94398433e-02 -3.59410904e-02
  -7.42001832e-02  7.32867699e-03 -1.90480780e-02  2.26476863e-02
  -5.06900903e-03 -1.89885721e-02 -1.95336659e-02 -4.99399528e-02
  -4.10331376e-02 -1.52849723e-02  3.01865544e-02 -3.31338346e-02
   2.48519257e-02 -1.86535530e-02 -8.52023065e-03 -7.36862645e-02
  -8.52156356e-02 -1.18067004e-02 -2.77654007e-02  1.06168436e-02
  -3.22221480e-02  1.32967355e-02  2.52747089e-02 -2.10817549e-02
  -7.38689024e-03 -1.87807139e-02 -2.29397342e-02 -5.15692532e-02
  -5.53075038e-02  1.42596671e-02 -3.85203324e-02  9.47290100e-03
   7.09259436e-02 -1.07785754e-01 -7.72748962e-02  3.27897035e-02
  -5.25414124e-02  1.18986405e-02  4.14393730e-02 -7.80222490e-02
  -3.88726071e-02  2.23296862e-02 -5.15100472e-02 -9.80045763e-04
   9.38300230e-03 -4.71994653e-03  2.78065223e-02  2.96539459e-02
   2.43180674e-02 -4.98048216e-02  3.90206799e-02  2.78254841e-02
   3.47985029e-02 -1.50902765e-02  6.39965432e-03  2.28194110e-02
  -2.22203061e-02  2.38253493e-02 -4.72652689e-02 -9.38552525e-03
  -6.90919310e-02 -1.56552382e-02 -1.43768359e-02 -1.24108624e-02
  -3.61851007e-02 -6.29375651e-02 -6.27150759e-02  3.58205810e-02
  -6.67530075e-02 -5.78146763e-02 -6.33402215e-03 -2.79324949e-02
   1.91350989e-02  2.69087683e-02 -1.47479074e-02 -3.84210385e-02
   4.57602404e-02  3.97023559e-02 -4.93227653e-02  2.64883488e-02
   1.12400986e-02 -2.11432017e-02  1.89451370e-02  3.39976549e-02
   2.52865478e-02 -3.34516652e-02  3.45817097e-02  1.17052002e-02
  -3.03648729e-02 -9.98879876e-03 -5.02579585e-02 -3.51474918e-02
  -4.91948463e-02  2.04315186e-02  2.03841217e-02 -2.35183537e-02
  -3.48992161e-02  3.69010679e-02  2.39247363e-02  3.92751805e-02
   2.24475041e-02 -6.20049350e-02 -9.57554672e-03 -1.98583640e-02
  -4.53847311e-02  2.34723035e-02  1.58067644e-02 -2.95872483e-02]
 [ 3.81044783e-02  5.07162772e-02  7.17815161e-02 -8.42829719e-02
  -4.90207188e-02 -2.43687890e-02  4.39608954e-02  2.73768194e-02
   1.78578757e-02 -8.97294134e-02  1.80467591e-01 -2.60972399e-02
   3.10592409e-02  2.13701446e-02  5.69761507e-02 -3.89544778e-02
  -9.97184068e-02 -2.35339608e-02 -4.73526008e-02 -4.60294895e-02
  -6.79650828e-02 -6.08831197e-02 -4.16508056e-02 -4.48289514e-02
   1.59355917e-03  9.54349265e-02  2.11671200e-02 -3.84983867e-02
  -3.63027975e-02 -6.07825108e-02 -4.55410220e-02 -5.35762124e-02
   2.82012057e-02  8.77282172e-02  4.11010683e-02 -2.06994452e-02
  -1.76435914e-02 -6.40005767e-02 -6.57837605e-03  1.13202808e-02
  -1.80962998e-02  2.27277097e-03  3.43284234e-02 -3.99124585e-02
   9.70391557e-03 -7.47386143e-02 -1.94887444e-02 -2.23089140e-02
  -3.91904041e-02  2.29879748e-02 -9.89867449e-02 -5.53406626e-02
   3.77953947e-02 -3.61449383e-02  3.54420021e-02 -9.78883728e-02
  -1.40110534e-02 -6.03568926e-02 -3.18936743e-02 -7.92050660e-02
   3.36113982e-02 -1.75199937e-02 -7.29472637e-02 -2.00820272e-03
   3.60527448e-02  1.10067904e-01 -4.15091477e-02 -6.65474311e-03
   1.07156644e-02 -1.28132969e-01  9.76997763e-02 -6.72237352e-02
   1.48959300e-02 -7.05143139e-02  4.31902930e-02  2.32081860e-02
   1.69707268e-01 -1.48300873e-03 -1.33761883e-01  6.04775175e-03
   8.14341754e-03 -5.05237579e-02  4.04052697e-02 -5.30952401e-02
  -9.51804966e-03  5.22251017e-02 -5.04254363e-02 -4.78922129e-02
  -5.31927980e-02 -1.47742685e-02 -3.37482989e-02  4.14463878e-02
   2.57408358e-02  3.29291485e-02 -1.78133156e-02 -6.78509250e-02
   4.54195999e-02  3.32678743e-02 -7.02188835e-02  1.13320507e-01
  -2.81356685e-02 -4.01373692e-02 -3.94790694e-02  7.48541998e-03
   5.13805598e-02 -1.59234498e-02  1.30565129e-02 -1.06904209e-02
   1.83042902e-02 -1.77532099e-02 -4.34043594e-02 -3.33884247e-02
  -6.00431189e-02  6.84715714e-03 -7.23956451e-02  4.72881608e-02
  -7.03822672e-02 -3.40832584e-02  2.50380486e-02  8.74470919e-02
   1.60847288e-02  1.10273482e-03  4.15377244e-02  7.10658655e-02
   2.08833128e-01 -6.56979829e-02 -2.09513962e-01 -6.16686158e-02]
 [-5.97982369e-02  5.75010404e-02 -3.67755368e-02  4.13105190e-02
  -1.70381088e-02 -5.10920472e-02 -1.13355191e-02  7.81889632e-02
   6.17161021e-02  3.90181318e-02  1.09046593e-01  9.18750186e-03
   4.08118255e-02 -3.26995403e-02  1.06760887e-02 -7.64718726e-02
  -2.52540082e-01 -5.00141531e-02  1.22798258e-03 -2.77102776e-02
  -4.49430496e-02 -4.12891768e-02  7.38114938e-02  1.89463124e-02
   1.81843974e-02 -1.28176525e-01  5.24449833e-02  3.35959271e-02
   1.52234156e-02 -1.67460237e-02 -1.85787082e-02 -4.59676236e-02
   2.45287605e-02  3.72962318e-02 -6.33081868e-02 -5.76076396e-02
  -5.03281914e-02  4.20911284e-03  2.74559222e-02 -8.05847868e-02
  -5.15857302e-02 -3.03693712e-02  1.54334763e-02 -3.22378054e-02
  -3.34120169e-02  3.36710960e-02  5.75970337e-02  1.88425854e-02
  -1.80044547e-02 -1.58695430e-01 -9.17867795e-02 -2.15003882e-02
   3.37962136e-02 -3.91210653e-02  5.23555204e-02 -6.55902224e-03
   3.64857316e-02 -3.32253985e-02  2.32130047e-02 -7.27260187e-02
   3.99430543e-02  2.16724109e-02  2.35038027e-02 -2.89436970e-02
  -7.18466043e-02  3.91308479e-02 -5.75906932e-02  2.96625905e-02
   1.75737381e-01 -1.04421519e-01 -2.23096550e-01  1.13209926e-01
   1.77621823e-02 -2.66492926e-02  1.87461264e-02 -6.35608509e-02
  -5.69078997e-02  4.44130227e-02 -1.22728713e-01  5.86874150e-02
  -4.14643437e-03  6.38160575e-03 -9.85630043e-03  2.45607123e-02
  -4.01856005e-02  2.21156478e-02 -1.05832610e-02  4.57638204e-02
  -1.76272336e-02 -7.61692924e-03  1.73586272e-02 -2.98009701e-02
  -9.01494399e-02 -1.17140105e-02  3.59363295e-02  6.17288402e-04
   1.75053184e-03 -2.45694201e-02 -2.92070303e-02  1.44041613e-01
  -2.27464363e-02 -7.51851723e-02 -1.14142420e-02  4.41128463e-02
  -2.89862435e-02 -3.56548815e-03 -3.16760875e-02  5.67929111e-02
   2.27270722e-02 -8.59590769e-02 -5.62116764e-02 -2.37242039e-02
   3.04248575e-02 -2.44005527e-02 -1.54800443e-02 -6.66399002e-02
  -2.61616390e-02 -4.51983977e-03 -5.34401760e-02  4.05097529e-02
   2.97979787e-02  3.39441374e-03  4.47200723e-02 -3.64078842e-02
   3.03100012e-02 -3.66395302e-02 -9.64243487e-02 -8.81096944e-02]
 [ 1.11159675e-01 -7.16814175e-02 -3.13544609e-02  4.23157625e-02
  -3.81156020e-02  4.10273820e-02 -1.06092378e-01  8.67236778e-02
  -5.25016487e-02 -1.38299286e-01  1.04847960e-02  2.54000220e-02
  -7.49233291e-02  4.24637906e-02 -4.04926464e-02 -1.24259312e-02
   9.80097950e-02 -7.25026301e-04  3.94585133e-02 -1.51000568e-04
  -4.22781780e-02  2.41105799e-02 -3.03404406e-02  2.79349536e-02
  -7.10065896e-03 -5.35373390e-02 -2.79468251e-03  2.33932231e-02
  -1.17742300e-01  4.44826903e-03  1.92665476e-02 -4.73003387e-02
  -7.78359771e-02 -7.31865466e-02  6.88759983e-02 -1.47083614e-04
   2.09206361e-02 -3.27019840e-02  2.31967065e-02  4.31302935e-02
  -8.88281688e-03  2.28537689e-03  7.04033226e-02 -9.61575564e-03
   3.79277058e-02  3.34385037e-02  4.61659096e-02  1.84445211e-03
  -5.46261016e-03  1.25699230e-02 -6.49262890e-02  9.13746655e-03
  -7.71477520e-02  3.22982520e-02  1.96554344e-02 -4.15012566e-03
  -3.93517502e-02  1.47835277e-02 -1.01750933e-01 -6.73531592e-02
  -5.77933341e-02 -6.26178738e-03 -1.82410423e-02 -1.18582463e-02
  -3.23544182e-02 -1.15171783e-01  1.36272600e-02  2.23472752e-02
  -1.29060745e-01 -1.21498816e-01  3.51518169e-02 -1.75811321e-01
  -3.74991298e-02  1.16282003e-03  1.56474970e-02  8.03045370e-03
  -1.20661547e-02 -1.73771067e-03  6.29301518e-02  2.84228474e-02
   2.20270548e-02 -1.73783805e-02 -5.21511398e-02 -2.14323327e-02
  -3.76093201e-02  2.35542692e-02 -1.45970108e-02 -6.31190417e-03
  -1.19514493e-02  2.86389235e-02 -8.62153322e-02 -2.20857244e-02
   3.00358552e-02 -3.29918116e-02 -8.34972933e-02 -1.47336153e-02
   1.91761013e-02 -4.54223119e-02 -9.08735394e-02 -1.70366261e-02
  -6.88583255e-02 -6.69331178e-02 -4.74922135e-02 -5.86177371e-02
   2.15319842e-02 -4.76007462e-02  5.36205294e-03 -8.08809325e-02
  -4.11417335e-02 -7.68687576e-02  3.83364176e-03 -4.38812412e-02
   2.74259280e-02  3.19567062e-02  4.53317678e-03 -2.65445169e-02
  -4.00674082e-02 -2.33098455e-02 -3.63746099e-02  1.54771386e-02
   9.65994298e-02  3.88698243e-02 -6.35354081e-03 -5.16804978e-02
   1.24448463e-01  5.41310711e-03 -3.07636783e-02  3.23540084e-02]
 [-1.17990477e-02  3.17264274e-02  2.15974953e-02 -2.35525370e-02
   1.89012568e-02  1.20486664e-02 -1.29041364e-02  2.95421351e-02
   7.50766397e-02 -7.24856183e-03 -6.17172644e-02  1.42077371e-01
  -4.48478498e-02  1.03826569e-02 -7.38812611e-02 -3.18720005e-02
   1.03566423e-01 -2.13162228e-02  1.97725464e-02  2.43779719e-02
   3.99796888e-02  7.53796846e-02 -1.25906512e-01 -1.19514138e-01
   1.14488173e-02 -5.45905568e-02 -6.18065931e-02 -7.32323602e-02
  -7.21760839e-02 -4.07886505e-02 -4.52938862e-02 -3.10778804e-02
  -9.54438280e-03 -1.04272880e-01  5.03573902e-02 -1.80451628e-02
  -3.81109677e-02 -2.41471119e-02  9.41356353e-04 -2.78364345e-02
   4.40683365e-02  1.49439853e-02 -6.25464767e-02  3.09933964e-02
  -6.27744477e-04 -1.35101741e-02  3.88990901e-02  8.91600829e-03
   2.79805548e-02  2.61697114e-01  3.76560017e-02  4.32405360e-02
   7.81184435e-02  2.28428803e-02 -1.03319280e-01  1.38779968e-01
   3.31302285e-02 -6.01452542e-03 -3.59401792e-01  6.69886544e-02
   4.32332568e-02 -4.22594184e-03  3.54066342e-02 -6.24730736e-02
  -5.10212444e-02 -2.29803156e-02  3.34986411e-02  9.27660093e-02
   7.54062012e-02  4.54187207e-02  3.34673822e-02 -1.83162808e-01
  -3.40439603e-02 -4.53843884e-02 -1.47975497e-02 -4.21061255e-02
   1.09195583e-01  2.16015261e-02  2.23565400e-02  1.36839254e-02
  -4.75485064e-02  5.09637408e-02 -4.02371958e-02 -9.69703123e-03
  -4.37308699e-02  1.71233881e-02 -2.66060550e-02  2.35681664e-02
   4.95197549e-02 -5.54493964e-02  1.20191202e-01 -2.11962275e-02
  -1.20206494e-02 -1.55913666e-01  8.95474404e-02 -4.84339856e-02
   5.14705516e-02  9.76418203e-04  2.31129527e-02 -8.03673044e-02
  -4.45017405e-02 -6.25135973e-02 -1.81125879e-01  1.04394741e-02
   2.31936388e-03 -2.27893516e-02 -5.89842349e-02  1.11651020e-02
  -1.12975113e-01 -6.21851012e-02  2.85845082e-02 -2.34257337e-02
  -5.12621179e-02  3.72489356e-02 -4.84160855e-02  3.03184539e-02
   8.15685745e-03  6.95532653e-03 -1.19941011e-02 -6.99929520e-02
  -5.14914207e-02 -4.22052070e-02 -3.54340561e-02  1.00004196e-01
  -1.58310294e-01  3.23960707e-02 -3.74211557e-02 -6.24633096e-02]
 [-2.67885439e-02 -3.01043317e-02 -1.59351267e-02  1.12120593e-02
   2.51669753e-02  1.99311823e-02  8.40538647e-03 -4.30351868e-02
  -2.78952271e-02 -9.29315016e-02  6.68492913e-02  4.00512069e-02
  -1.08448580e-01 -1.42017370e-02 -1.08616371e-02 -7.30092227e-02
  -2.01795232e-02  3.01714204e-02  6.40869364e-02 -2.30778661e-02
   5.00069745e-02 -5.17225936e-02  1.65412545e-01 -1.49771906e-02
   3.09611801e-02 -2.25766525e-01 -5.31334728e-02 -2.20126063e-02
  -3.20141017e-02 -5.95870428e-02 -6.21255897e-02 -4.98555228e-02
  -8.83255620e-04  8.45313892e-02  9.93115604e-02 -6.49982989e-02
   4.09235284e-02  3.64183225e-02 -3.19170319e-02  2.00749002e-02
   5.08504063e-02 -1.51104843e-02 -1.74376115e-01  2.34009605e-02
  -2.53423881e-02  1.30859822e-01 -5.27722128e-02 -4.05976474e-02
   1.05458358e-02  9.10515338e-02 -4.20760997e-02 -3.18067288e-03
   8.05753171e-02  8.83993134e-03 -1.60847172e-01  1.37951165e-01
  -3.77351530e-02 -4.96610478e-02 -4.75532487e-02 -4.41910774e-02
  -5.29665202e-02 -1.41095091e-02 -2.01874599e-02  4.30558659e-02
  -2.91176327e-02  5.29583581e-02  5.19754738e-02 -1.19874232e-01
  -6.74027018e-03 -2.26933658e-02 -1.50036260e-01 -4.14380580e-02
  -6.27592057e-02 -6.10666573e-02  1.74673293e-02 -2.02533677e-02
   5.90175018e-03 -5.03363870e-02 -1.62535504e-01 -1.86999604e-01
  -1.67159960e-02 -7.44633656e-03 -1.86444316e-02  4.41715047e-02
  -3.50310989e-02  2.89787240e-02  5.01118600e-02 -6.37922138e-02
   3.32205109e-02 -4.32309061e-02  4.43996489e-02 -4.76132929e-02
  -2.02097232e-03 -6.92618266e-02  7.61103956e-03  2.61668358e-02
  -4.94795218e-02  8.45391862e-03 -2.19376944e-02 -9.75150391e-02
  -1.03025258e-01 -4.43907790e-02 -2.72962707e-03 -4.28122655e-03
  -1.84471905e-02 -9.30618588e-03  1.36345448e-02 -1.54263116e-02
   2.61268560e-02  3.20651606e-02 -2.59377193e-02  6.86503276e-02
  -2.00520679e-02  3.14246267e-02  2.59356163e-02  3.85502875e-02
  -6.71429560e-02  3.75298820e-02  5.05448431e-02 -6.13340437e-02
  -1.22033469e-01 -2.73899194e-02  3.05717401e-02 -5.09603359e-02
  -2.25080714e-01  3.82026881e-02 -3.58562060e-02 -2.30912771e-02]
 [-8.49447697e-02  2.79187988e-02 -8.26204047e-02 -8.06488097e-02
  -4.57786284e-02 -1.57878315e-03  4.55650203e-02  8.37033913e-02
  -4.76670638e-02  7.30530545e-02  1.91076435e-02  2.14899890e-02
  -1.46133713e-02  2.47341301e-03 -4.05981317e-02 -6.55030459e-02
  -3.35158184e-02 -7.96240345e-02  7.65133533e-04  3.56157832e-02
   2.00290401e-02 -1.87632050e-02 -1.81536470e-02 -1.60795897e-02
   3.22159752e-02 -2.00598929e-02  2.73922272e-02 -2.99192825e-03
  -9.89312492e-03 -5.80277145e-02 -6.19820356e-02 -1.04718441e-02
   1.24391802e-02 -2.04504351e-03  7.61401132e-02 -8.63857344e-02
   2.94161942e-02 -1.73570700e-02 -1.20784305e-02 -6.85578361e-02
  -5.97329251e-03 -5.82204424e-02 -6.03325143e-02  1.51765230e-03
  -4.35985960e-02  6.30622283e-02 -4.82475981e-02 -5.84567524e-02
   2.16077585e-02  2.58719679e-02 -2.01918408e-02 -5.18477522e-03
  -3.96608040e-02 -2.95149684e-02 -6.89345505e-03  3.35166715e-02
  -1.89204272e-02  1.77737046e-02 -9.79784131e-03 -3.69331837e-02
   9.42210667e-03 -1.20533220e-02 -3.46585363e-02 -5.25091626e-02
   2.54805665e-02  1.62735669e-04  3.48577052e-02 -2.41549928e-02
  -6.77875727e-02  9.00193490e-03 -7.93126971e-03  2.94901654e-02
  -5.86489439e-02  2.57799029e-02 -2.51055509e-02  3.81913483e-02
   4.55920622e-02 -3.95984277e-02  3.41000520e-02 -3.41107398e-02
  -5.13734967e-02  1.26421510e-03 -6.27039373e-03  6.36259327e-03
   9.26879793e-03  3.05983443e-02  1.28876446e-02 -4.24949406e-03
   9.78186727e-03 -1.14549771e-02 -2.82386001e-02 -2.84380876e-02
  -3.19463108e-03 -3.57292481e-02 -6.50816113e-02  7.15639535e-03
   8.48432258e-03 -1.60502095e-03 -5.16551211e-02 -4.61219251e-02
  -3.79649893e-04  5.10323048e-02 -1.06323510e-02 -8.52426887e-02
  -3.89080495e-02 -2.17213412e-04  3.40805091e-02 -2.46848408e-02
   3.46075706e-02 -6.50192499e-02 -3.41418907e-02  7.33433012e-03
  -4.16348986e-02 -4.77910712e-02 -4.33039255e-02 -3.77391130e-02
  -7.44082928e-02 -5.84743358e-02  3.24103907e-02  2.30914224e-02
   1.92856342e-02  1.60065535e-02  7.19332136e-03 -4.73511079e-03
  -6.54662028e-02 -5.63521385e-02 -4.35833354e-03 -3.78097855e-02]
 [ 1.24282479e-01  8.56885687e-03  3.51981632e-02 -4.46715429e-02
   5.70929758e-02  1.08055249e-02 -2.52315253e-02 -7.53630996e-02
  -4.45217788e-02 -1.30146265e-01  1.64658755e-01  1.89529583e-02
   1.90192126e-02  3.55699249e-02 -4.18915935e-02 -7.87494257e-02
  -1.63261324e-01  1.54659254e-02  2.84620654e-03 -1.60353705e-02
  -1.54431043e-02 -2.81064247e-04 -7.64762983e-02 -3.13392095e-02
   4.95781340e-02  1.51479319e-01  2.57564560e-02  3.36979236e-03
  -1.12563008e-02 -6.63527995e-02  2.39267386e-02 -3.21417153e-02
   2.19090674e-02  1.04301602e-01  1.24879807e-01 -2.03371029e-02
   3.01897228e-02  2.88576744e-02 -4.40572090e-02  5.18114120e-03
  -4.91352193e-03 -5.45186810e-02  8.53950307e-02 -2.19416078e-02
  -3.10205668e-02  1.50338739e-01 -6.51470423e-02  1.12623209e-02
   5.83385080e-02  1.16150856e-01 -1.36038363e-02  4.01835144e-02
   7.02477098e-02 -4.23412398e-02 -1.90789197e-02 -4.94014099e-02
   1.32808099e-02 -3.28663141e-02 -1.32148564e-01  5.70031740e-02
  -6.01661131e-02 -2.53153257e-02 -9.00290534e-03 -2.85581611e-02
  -4.38806340e-02  1.27274364e-01 -3.36890034e-02  6.75493665e-03
  -1.04977777e-02  1.69706032e-01 -3.98110747e-02 -6.17370121e-02
   1.08706374e-02 -5.43508083e-02  3.45746987e-02  4.85184696e-03
  -5.92010058e-02 -6.36968622e-03 -7.95698836e-02 -7.49082714e-02
  -6.90741614e-02 -6.36449829e-02 -1.51855332e-07 -7.92987738e-03
  -2.83865258e-02  5.19454293e-03 -5.25528155e-02 -3.73441614e-02
  -4.37140316e-02 -3.54319699e-02 -1.62844703e-01 -2.53877360e-02
   3.24095674e-02 -8.38901754e-03 -1.10207088e-01 -3.39359045e-02
   2.50183605e-02 -3.69175896e-02  8.61904863e-03 -4.54306304e-02
   4.50303778e-02 -9.53487493e-03 -4.25444692e-02  1.48789352e-02
  -2.46049352e-02 -1.10305473e-02 -3.86766605e-02 -2.18629278e-02
  -9.70899593e-03 -1.06888741e-01  5.29732369e-02 -3.00088283e-02
  -2.35312339e-02  2.53479499e-02 -5.07594598e-03  3.94959673e-02
  -6.83448240e-02 -3.38754579e-02  3.85013260e-02  9.85844657e-02
  -4.50998135e-02  6.49179667e-02 -1.41561152e-02  3.62501778e-02
   1.09808870e-01  3.59995216e-02 -1.41970798e-01 -7.34589696e-02]
 [-6.74131364e-02  5.45644686e-02 -6.37775660e-02 -3.87305431e-02
  -5.32957427e-02  5.61447293e-02 -5.70794893e-03  2.04081479e-02
   3.25401276e-02  1.87627468e-02  1.43514067e-01  3.54910940e-02
   2.68316455e-02  3.02056391e-02 -1.92673714e-03 -8.20120052e-02
  -1.85231030e-01 -4.86949086e-02  4.68684509e-02  1.15665291e-02
   2.59225443e-03  2.03123130e-02  1.07109450e-01  1.83013100e-02
  -1.40140364e-02 -1.03612162e-01  2.50586886e-02 -2.31783874e-02
   7.09251910e-02  9.06310230e-03  2.69050915e-02 -9.54862013e-02
   5.27082458e-02  6.99298009e-02 -1.97020080e-02  2.98748240e-02
   4.45123389e-03 -1.00775221e-02  1.02666859e-02 -2.85033751e-02
  -6.41502067e-02 -1.03192572e-02  1.20998705e-02 -5.46397083e-02
  -1.73636116e-02 -6.65884912e-02 -3.92722748e-02 -6.14074580e-02
   2.96545848e-02 -5.62836453e-02 -6.56478405e-02  3.83960009e-02
   3.38261798e-02 -3.88145857e-02 -1.33181870e-01 -9.22664884e-04
  -3.62227745e-02  5.60172182e-03  1.89055409e-02 -8.67028013e-02
   2.22136732e-02  4.49698797e-04  3.37018296e-02 -3.71306464e-02
  -4.77444474e-03 -3.31302546e-02 -5.90937696e-02 -1.44135067e-02
   4.86905463e-02 -4.42021824e-02 -1.86611325e-01  1.55916110e-01
  -6.05897270e-02 -3.48255527e-03  8.90494045e-03  1.60315800e-02
   2.65284944e-02  2.67339889e-02 -1.96489692e-01  1.35790845e-02
  -5.07126227e-02  1.39889056e-02  5.87814525e-02 -3.94690111e-02
  -8.31354409e-03 -5.73102534e-02 -2.75738891e-02  2.32061315e-02
   1.27047685e-03  2.37946399e-02  4.77171168e-02  1.45293344e-02
  -2.77442615e-02  8.67669564e-03  2.79180296e-02  4.49533537e-02
  -5.99266626e-02 -4.10595573e-02  6.35889098e-02  1.38778295e-02
  -3.32261659e-02  2.24945340e-02 -5.14839925e-02  3.78270224e-02
   4.83888276e-02 -3.68927345e-02 -1.07475156e-02  3.23201530e-02
  -1.47616193e-02 -1.02658436e-01 -3.26636881e-02 -3.15516852e-02
   4.31254916e-02 -1.72101464e-02  6.69563562e-02 -4.52773198e-02
  -7.86866173e-02 -4.00502533e-02  2.72529852e-03  8.65314305e-02
   5.41747436e-02 -1.08463550e-02 -2.49211174e-02 -8.84986967e-02
   3.54657322e-02 -1.05766676e-01 -1.29160374e-01 -2.74798572e-02]
 [ 3.18100452e-02  2.97460314e-02 -7.85264671e-02 -4.27153856e-02
  -4.15312760e-02 -3.94248255e-02 -1.63303744e-02  2.01754570e-02
  -8.52956846e-02 -1.49054259e-01  1.06942758e-01 -2.30992008e-02
  -1.13977939e-01 -3.79025154e-02 -1.31537365e-02 -1.86538044e-02
   3.79118472e-02 -9.95979924e-03 -1.85335372e-02 -5.69329113e-02
   4.40752394e-02 -1.03555344e-01 -3.66487056e-02  5.14877290e-02
  -1.34137487e-02 -1.19867004e-01  3.56385708e-02  4.00594547e-02
  -1.16843265e-02  3.45028453e-02  1.75008494e-02  2.72328891e-02
  -5.18210530e-02 -9.74825770e-02 -9.88859683e-02  2.38706153e-02
   9.05676279e-03  1.82759184e-02  4.17954922e-02 -8.17586407e-02
  -3.70716825e-02 -1.41340224e-02  2.16737747e-01 -5.75301945e-02
   1.78089924e-02 -1.00546502e-01 -3.10914852e-02  1.17417956e-02
  -6.24182634e-02 -9.27188471e-02 -4.20508571e-02 -5.30531704e-02
  -5.85039407e-02  4.83683385e-02  3.52044962e-02 -4.65049222e-02
  -2.27075964e-02  4.31369543e-02 -9.62198600e-02 -2.22239625e-02
  -1.21590579e-02 -4.31771912e-02  4.66471091e-02 -6.46799505e-02
  -5.33184186e-02 -4.61706072e-02  3.65345962e-02  3.67827411e-03
  -1.00617573e-01 -7.42537752e-02  2.75787786e-02 -2.07678735e-01
  -5.73561527e-03  1.67605951e-02  2.94378232e-02  1.97002236e-02
   2.65513361e-02 -5.58588840e-03  1.28253818e-01  5.36510572e-02
  -2.56893635e-02  2.79824175e-02  8.19494575e-03  3.40186246e-02
  -8.92801583e-02 -2.64544273e-04 -2.08293162e-02  2.54175738e-02
   4.90282699e-02  5.16304225e-02 -1.19315043e-01 -2.96377274e-03
  -6.59736693e-02 -5.44863753e-02 -1.08997643e-01 -5.95402904e-02
   2.87991036e-02 -5.21381162e-02  2.08969470e-02  3.60605717e-02
  -3.03402189e-02  2.00284552e-02 -3.29140062e-03  2.03725584e-02
  -7.86756910e-03 -1.40424995e-02 -4.19787206e-02 -1.94121264e-02
  -6.73052594e-02 -3.13118994e-02 -5.06620407e-02 -9.28353667e-02
   3.88126224e-02 -2.46326029e-02 -5.15376739e-02 -5.95368631e-02
  -3.27894581e-03  2.14216318e-02 -6.41241595e-02 -3.21827419e-02
   5.45762293e-02  3.18037458e-02  1.10835051e-02 -5.74418977e-02
   1.01638667e-01  2.15688292e-02 -6.18519858e-02 -4.58302200e-02]
 [-6.37108758e-02 -6.65972307e-02  1.47357259e-05 -4.39177640e-02
   5.45170717e-02 -4.33165953e-02  1.10927112e-02 -3.47999334e-02
   1.80268344e-02  2.11903304e-02 -1.67192053e-02  1.09966286e-01
   4.94070537e-02 -6.25919849e-02 -6.76587895e-02 -7.30525479e-02
   2.27391928e-01  3.51421274e-02  4.46623117e-02  1.68802813e-02
   3.53177674e-02  8.48547556e-03 -6.53962838e-03  4.94115707e-03
  -1.11190109e-02 -1.83339119e-02 -1.31357908e-02 -4.57470454e-02
  -8.88185855e-03  2.46081501e-02 -1.97553611e-03 -2.39887983e-02
  -3.53054032e-02 -1.16363332e-01 -2.35769916e-02 -3.09474915e-02
  -3.30251791e-02  4.48491285e-03 -3.81980315e-02 -5.00624417e-04
  -3.53454798e-02 -2.15788241e-02  6.79388195e-02  2.53790598e-02
  -6.01758203e-03  4.97382917e-02  6.65428757e-04 -5.01213931e-02
  -1.49553232e-02  8.20267424e-02 -4.01041657e-02  3.53358090e-02
   2.04705998e-01 -4.14926484e-02 -4.96361256e-02  2.43578330e-02
   1.93947945e-02 -6.21767715e-02 -2.04590306e-01 -3.83548602e-03
   2.02568322e-02 -2.00269581e-03 -5.56437597e-02  5.61009534e-02
  -2.12642755e-02 -2.94371676e-02 -5.77844568e-02  1.82303768e-02
   3.28255780e-02 -6.65298477e-02  9.41453874e-02 -1.13316894e-01
  -2.97089610e-02 -1.44572798e-02  3.96278594e-03 -2.25775014e-03
   1.21782884e-01  4.35560867e-02  6.16994798e-02 -8.15542191e-02
   5.37208701e-03 -2.45206698e-04 -3.56771960e-03  2.14788038e-03
  -1.09480741e-02 -4.68889922e-02  1.97005104e-02 -3.70692015e-02
  -3.32650952e-02 -9.35449172e-03  1.08033240e-01  3.06760836e-02
   3.58757749e-02 -3.40033136e-02  4.62661050e-02 -2.19471585e-02
   1.72564033e-02  4.92263213e-03 -6.34950399e-02 -1.75558239e-01
   8.10651295e-03 -2.76038833e-02 -9.84698310e-02  4.33544554e-02
  -3.18076648e-02 -1.10179922e-02  5.19272052e-02 -5.16693965e-02
  -6.55912533e-02  2.51088068e-02  4.21581753e-02  6.40014410e-02
   2.81101018e-02  2.75032409e-02 -5.86432330e-02  5.51662967e-02
  -1.31206028e-02 -7.76881203e-02  6.56229304e-03  1.65577590e-01
   1.36260074e-02  6.92296997e-02  3.51910554e-02  6.39128909e-02
   2.93035489e-02  1.41587239e-02 -2.23926660e-02 -2.80516222e-02]
 [-1.01415381e-01  3.21663581e-02 -3.16177569e-02  2.48989114e-03
   3.15817818e-03  4.71136486e-03  4.71755415e-02  3.03780427e-03
   4.58117947e-02 -2.61381529e-02  5.20744659e-02  9.39847082e-02
  -5.11054285e-02 -1.82749853e-02 -9.78887528e-02 -2.37668641e-02
   7.34484419e-02 -1.38694551e-02  1.17603980e-03  1.54445588e-03
  -6.01655468e-02  7.24968268e-03 -1.52976401e-02 -4.53991927e-02
  -6.53805062e-02 -4.60915118e-02  8.21469165e-03 -4.21095379e-02
  -1.36842756e-02  4.30417396e-02 -3.52293923e-02 -1.02219604e-01
  -4.23981529e-03 -5.60611859e-02  4.18221205e-02  1.52546298e-02
  -1.79760829e-02 -4.04332131e-02 -2.68706530e-02 -5.93471564e-02
   3.15666646e-02 -5.53812385e-02 -1.69401184e-01 -2.80851219e-02
  -3.84407751e-02 -1.89435948e-02 -4.77880873e-02  1.82391442e-02
  -2.87639294e-02  9.07028019e-02 -7.26065040e-03  5.29550482e-03
   3.14828977e-02  2.62304116e-02 -6.52049109e-02  9.95687917e-02
  -1.09326299e-02  7.78078521e-03 -1.44108310e-02  2.61813551e-02
   1.48281325e-02 -3.53352241e-02 -1.68837495e-02 -6.45385012e-02
  -1.82267595e-02  7.32641444e-02  2.59363744e-02 -6.58253282e-02
   4.63846996e-02  1.82642471e-02 -7.79434815e-02  2.08225120e-02
   2.59645693e-02  3.52201425e-02 -4.17448767e-02 -2.51152627e-02
  -5.61244972e-02 -3.18820099e-03 -1.90189853e-01 -1.79939374e-01
   5.76672703e-02 -5.17974757e-02  4.11626101e-02 -5.21819629e-02
   3.81169468e-02  2.17720363e-02  3.76219116e-02 -4.71918508e-02
   5.34803495e-02 -5.92100210e-02 -2.15156879e-02  3.66963744e-02
  -2.68425904e-02  1.53038176e-02  1.31846115e-01  3.55779752e-02
  -4.51341830e-02 -4.48060855e-02 -7.65536204e-02  2.06031837e-02
   1.10133076e-02 -6.33648783e-02 -1.70375202e-02 -6.38808534e-02
  -1.71117317e-02  8.71066749e-03 -6.98365942e-02 -1.00841848e-02
  -2.14137379e-02 -4.32948768e-02 -5.97409904e-02  3.03850602e-02
  -4.78046760e-02 -4.84305667e-03 -1.70248989e-02 -2.55217310e-02
   2.37359684e-02 -6.39728084e-02  4.93241102e-02 -3.15357000e-02
  -2.09787004e-02  1.03404494e-02 -1.39306197e-02 -1.03199631e-02
  -1.43302217e-01 -1.42257899e-01 -3.57180089e-02 -5.10843992e-02]
 [ 1.23574305e-02 -5.92001006e-02 -3.50907142e-03 -1.27290366e-02
  -5.36621585e-02 -1.34959966e-02 -3.91086414e-02  2.27623843e-02
   3.36704664e-02  3.96391004e-02 -4.43240851e-02  7.33612925e-02
   5.22316173e-02 -5.36662340e-03  3.41953896e-02  2.07406632e-03
   5.86878993e-02 -7.54985586e-02  3.26029174e-02 -2.06577517e-02
   2.06266716e-02 -9.28746723e-03  1.56105058e-02 -2.18850859e-02
  -3.11201494e-02 -9.20757931e-03 -8.55460484e-03 -3.52550149e-02
  -5.12295328e-02 -3.12229451e-02  3.23750861e-02 -1.49729792e-02
   2.15904545e-02 -2.19663568e-02  1.66879799e-02 -2.10450962e-03
  -5.20246327e-02 -1.71986818e-02  2.05954574e-02 -2.16568392e-02
   8.05031601e-03 -2.98436023e-02  1.12572014e-02 -4.75141127e-03
  -2.13360582e-02  3.30054350e-02 -2.22859289e-02 -7.46459514e-02
   2.44537871e-02  1.73520371e-02  1.44741656e-02 -1.99577603e-02
   6.08310923e-02 -5.69706783e-02 -5.50378673e-02  3.11333686e-02
  -3.29460064e-03  3.21380608e-02  8.38315636e-02 -4.83248755e-02
  -4.32114378e-02 -1.79459844e-02  4.03604358e-02 -3.23144719e-02
  -3.66044301e-03 -3.92041504e-02  5.08287959e-02 -5.68372384e-02
   2.21804567e-02 -7.37333894e-02  4.09076251e-02  5.10823876e-02
   3.40526253e-02  1.28298718e-02 -5.37099838e-02 -2.70998087e-02
   3.53624225e-02 -1.61838699e-02 -1.83283463e-02 -1.74588393e-02
  -6.47084936e-02 -1.90147161e-02  3.96820484e-03 -5.45669496e-02
   8.63028131e-03 -4.42844220e-02  3.24110277e-02 -3.33265439e-02
   1.57210615e-03  1.09833479e-02  2.22217431e-03  3.75278480e-02
   6.80221710e-03  1.86188072e-02 -5.34236059e-02 -5.11461310e-02
  -5.59971519e-02 -4.38584164e-02 -7.76334330e-02 -3.34425569e-02
  -1.83394589e-02  4.40423749e-02 -1.55311241e-03 -5.80404475e-02
  -8.96251351e-02 -6.06234260e-02 -1.44702895e-02  3.60075478e-03
   4.13309131e-03 -3.75163332e-02 -2.55069900e-02  2.65622754e-02
  -6.37252331e-02 -5.39216697e-02  3.26683819e-02  9.12499987e-03
  -7.45132491e-02  5.54179102e-02  1.78868007e-02  3.98442298e-02
  -2.90111788e-02 -2.67218077e-03  7.80327013e-03 -1.18707241e-02
   3.63109224e-02  3.42361405e-02  3.51721942e-02 -9.02007297e-02]
 [ 5.12674898e-02  2.28576586e-02  1.90493055e-02 -1.92940366e-02
   3.64059657e-02 -6.34639785e-02  6.61259294e-02  4.31849435e-02
   3.98507006e-02 -2.76494443e-01  1.13486089e-01  1.07998237e-01
   9.53851044e-02 -1.46967210e-02 -1.95834152e-02 -1.90374907e-02
  -1.10687688e-01  2.00392287e-02  3.79760936e-02 -4.95683625e-02
  -4.71290424e-02 -1.90024059e-02 -6.32108152e-02  2.99126201e-04
   3.10380030e-02  4.92253266e-02  2.18254775e-02  8.47870298e-03
  -1.93994403e-01 -1.98803283e-02  6.22142758e-03 -2.07631476e-02
  -6.98988736e-02  2.36930326e-02 -2.23417580e-02  2.75397487e-03
  -5.79022570e-03  7.41146971e-03 -4.29800116e-02  5.53033454e-03
   3.29642855e-02  4.08274308e-02  1.30904123e-01 -1.41861690e-02
  -5.36277965e-02 -2.18410846e-02  1.45579744e-02 -1.62392936e-03
  -1.89062916e-02 -1.22616561e-02 -6.46767989e-02  1.98281929e-02
   1.17739178e-02 -2.08463836e-02 -1.53587371e-01 -3.39846909e-02
  -5.54903336e-02  1.89052951e-02 -1.93762109e-01 -2.26242691e-02
   5.50004188e-03 -3.84815061e-03 -2.12258548e-02 -3.61516885e-02
  -9.97878984e-03 -1.22248940e-02 -2.90056951e-02 -4.69364524e-02
   5.66641018e-02  1.84505552e-01  1.71498254e-01 -8.53685662e-02
  -2.56834496e-02  3.57749350e-02  4.63480566e-04 -6.56944280e-03
   7.81975091e-02  3.65102664e-02 -8.69046748e-02 -4.79182005e-02
  -8.00969172e-03 -2.91940905e-02 -4.08362374e-02 -9.35456995e-03
  -4.07528551e-03  2.49638055e-02  8.75842664e-03 -6.35178387e-02
   3.92110720e-02 -2.63903495e-02 -1.93359807e-01  1.39630949e-02
   4.50151451e-02 -5.34949340e-02 -2.24205516e-02  2.64300052e-02
  -2.14371383e-02  2.08708551e-02  3.52171622e-02 -1.68770701e-02
   5.71156256e-02 -1.15680043e-02  6.32907376e-02  1.52418334e-02
  -6.47597015e-02  3.52529362e-02  4.32203226e-02 -8.75764936e-02
  -6.74172491e-03  1.91874653e-02 -3.33936475e-02 -1.13080047e-01
  -3.22469547e-02  1.45630073e-02 -3.53313722e-02 -4.02997546e-02
  -7.44477585e-02  2.73168068e-02 -8.46451242e-03  3.05774976e-02
   3.35181840e-02 -3.36943753e-02 -1.60978585e-02 -8.34141448e-02
   6.23482987e-02 -2.64262240e-02 -8.60460475e-02 -4.78317104e-02]
 [-4.88781519e-02 -8.09468329e-05 -5.60716018e-02 -2.73273103e-02
   3.55414711e-02  4.42840233e-02 -4.43533137e-02  6.30880967e-02
   8.68210867e-02 -4.38809948e-04  6.73173089e-03 -5.19595109e-02
   1.49244573e-02  5.58321103e-02 -1.05923250e-01  2.96006240e-02
  -1.04109786e-01 -9.24727023e-02  3.79323103e-02 -2.58184485e-02
  -3.27664912e-02 -2.99464241e-02  9.27887633e-02 -1.04275979e-01
  -1.07487589e-02 -1.27755061e-01 -2.86708260e-03 -5.99458031e-02
   4.04713377e-02  1.20912977e-02 -6.52512908e-02 -1.16668016e-01
   9.67113003e-02  4.13508750e-02  6.45259321e-02 -3.06147020e-02
  -5.60987443e-02  1.17254928e-02 -3.72435041e-02  6.84131030e-03
  -4.18062247e-02  3.63420546e-02 -5.90273105e-02 -3.00128385e-02
  -9.27620977e-02 -1.04926378e-02  8.02446809e-03  3.91104724e-03
  -4.86376844e-02 -1.31048098e-01 -3.17547098e-02 -1.83180664e-02
   2.04087682e-02 -1.22568151e-02  1.29179088e-02  3.26783471e-02
   5.96696958e-02 -7.20812604e-02 -6.14482090e-02 -2.05442645e-02
   3.20257843e-02 -7.63563290e-02 -5.98668382e-02 -5.77190220e-02
  -7.29250312e-02 -3.85215804e-02  1.18830269e-02  2.90296189e-02
   1.08110741e-01 -1.14600219e-01 -1.08005099e-01  1.22928150e-01
   1.84294321e-02  4.41895388e-02  2.02277824e-02 -6.06902353e-02
  -3.21025923e-02  3.46449353e-02 -1.96059361e-01  1.29249766e-02
  -6.27082586e-02 -5.01972847e-02 -5.27601913e-02  1.82904489e-02
   3.53283226e-03  2.91646495e-02 -5.50340414e-02 -5.29703051e-02
   5.05171679e-02 -4.78056595e-02 -1.05966240e-01  3.54100242e-02
  -4.08191886e-03 -6.24812841e-02 -1.81130273e-03 -5.12539148e-02
   1.66673474e-02 -4.62511033e-02 -5.85728250e-02  5.79282157e-02
   2.86444351e-02  3.63993794e-02 -3.10145207e-02 -4.93061431e-02
  -2.18942538e-02 -2.94188298e-02 -4.62481938e-03  2.39922889e-02
   2.68700980e-02 -5.84161952e-02 -5.04437983e-02  4.59916666e-02
  -3.10698971e-02  1.64425652e-02  5.84355295e-02 -2.19461769e-02
  -1.04312547e-01  4.06423770e-02  1.78297013e-02 -1.50052039e-02
   1.59984548e-02 -3.24017145e-02  3.24579328e-02 -3.28399204e-02
  -6.02483451e-02 -8.87932852e-02 -7.64707848e-02 -7.58429170e-02]
 [ 8.91357362e-02 -5.28057851e-02  4.15466614e-02 -1.48126725e-02
  -4.25640419e-02 -1.68695617e-02 -1.73454992e-02 -1.42762428e-02
  -7.76658729e-02 -1.00435235e-01  5.59314415e-02 -9.29897502e-02
  -1.08419903e-01  1.01619121e-02 -7.75448680e-02  2.26508398e-02
   2.15203129e-02  5.02572861e-03  4.21554819e-02 -5.54970186e-03
  -3.50843295e-02  5.70241250e-02 -7.87273049e-02 -3.09219472e-02
  -1.03209643e-02 -5.55933081e-02  6.63444120e-03 -4.74979095e-02
  -5.12849949e-02  9.69286915e-03  3.01199649e-02 -2.68438365e-02
  -2.00838037e-02 -7.14237764e-02 -2.62188204e-02 -2.14512479e-02
   1.85752232e-02 -5.04162200e-02  2.64696106e-02  1.32437134e-02
  -1.85513347e-02 -3.81940380e-02  1.35851264e-01 -4.18070853e-02
  -6.06252179e-02 -1.89853311e-02 -1.39347296e-02  3.15536298e-02
   8.06006882e-03 -1.04349954e-02  1.78477243e-02 -5.81992343e-02
  -3.14217545e-02 -3.56706008e-02  1.58487245e-01 -2.41797268e-02
  -5.88093000e-03 -9.60446969e-02 -8.05276260e-02 -2.93671694e-02
   3.31379212e-02 -1.37032650e-03 -1.89115927e-02 -3.18221282e-03
  -6.51417449e-02 -3.74902226e-02 -4.57217842e-02  5.91054035e-04
  -6.85604066e-02 -2.34880876e-02 -1.18362345e-02 -1.74035564e-01
  -8.33332315e-02  1.00080052e-03  4.65000188e-03 -3.19262110e-02
   2.93060970e-02 -8.24317522e-03  3.04401517e-02 -1.17614083e-02
   2.14116741e-02  2.87274774e-02 -2.89138779e-02  3.81914862e-02
  -3.67853381e-02  1.35019766e-02  4.86156344e-02 -5.71474768e-02
  -4.64178808e-02  4.88548912e-03 -4.72584702e-02 -1.04439827e-02
  -4.75913547e-02 -3.10733635e-03  3.41601344e-03  1.18467957e-02
  -5.26244715e-02  4.57362123e-02  8.99475589e-02  8.83469507e-02
  -4.11855802e-02  1.28290188e-02 -9.20504611e-03 -6.61702603e-02
   4.81916498e-03  2.26197802e-02  1.57612888e-03 -9.63206664e-02
  -3.45962532e-02 -2.05365121e-02  5.11340573e-02 -1.45878524e-01
  -6.90421909e-02 -4.05398756e-02  1.43415509e-02 -3.49677652e-02
   8.07766467e-02  1.31568369e-02  2.57655326e-02 -1.14135593e-01
  -2.92933751e-02 -2.71480344e-02 -2.75703128e-02 -5.70152886e-02
   1.36310637e-01  1.99718028e-02 -1.04073465e-01  4.35958505e-02]
 [ 1.53540298e-01 -5.21869250e-02 -9.15644616e-02 -7.46765956e-02
   6.25831308e-03 -4.30708937e-02 -1.27287637e-02  7.55925253e-02
  -5.75732738e-02 -2.19425738e-01 -3.15973745e-03  3.15382779e-02
   5.72190136e-02 -5.07915020e-02 -4.92310189e-02  5.33644855e-03
   9.52678844e-02 -4.63760756e-02 -2.92155389e-02  3.32201808e-03
  -4.54032719e-02  2.59108609e-03  6.33769557e-02 -9.17174146e-02
  -2.89141387e-03 -7.58353472e-02  3.25630382e-02  2.97702253e-02
  -8.85477066e-02  4.95470455e-03  2.85845040e-03 -4.47662659e-02
   3.03853452e-02 -4.82112207e-02  5.95875084e-02 -4.59710322e-02
   8.78691487e-03 -6.23334665e-03 -5.91442809e-02 -6.14618845e-02
  -3.64274755e-02 -4.61173950e-05 -7.25959837e-02  1.11370040e-02
  -5.07369228e-02  4.71513234e-02  4.59108278e-02  2.09794268e-02
  -4.49042059e-02  3.97354923e-03 -8.40317458e-02  2.09209267e-02
   1.38670325e-01  5.20091169e-02 -1.93577558e-01  7.72129148e-02
  -6.35955185e-02  5.07290065e-02 -1.40299380e-01 -1.66911893e-02
   1.78606827e-02 -4.33083400e-02 -2.35751420e-02  2.25686189e-02
  -5.15587442e-02 -1.34167925e-01 -5.29819503e-02  6.90369383e-02
  -1.27529697e-02  5.14555760e-02  6.15718700e-02  4.84910496e-02
   2.84816753e-02 -1.76231284e-02  2.22496409e-02 -4.49662171e-02
   8.84580240e-02  1.35943005e-02  3.01814880e-02 -1.95188984e-01
  -4.04287502e-02 -1.29031474e-02  1.52429044e-02 -3.29456516e-02
   5.97519474e-03  4.47491650e-03 -6.46852516e-03  1.28575768e-02
  -3.83514538e-02 -4.02427167e-02  9.77536011e-03  1.21000536e-04
  -7.40627795e-02 -1.27030224e-01  1.36267822e-02  8.55795946e-03
   1.65268574e-02 -3.15933637e-02  2.73493789e-02 -6.99945763e-02
   2.53154375e-02  4.58934009e-02 -4.87033203e-02  2.89331917e-02
   4.23020907e-02 -6.44518435e-02 -5.34691103e-02 -7.95665681e-02
  -6.28432333e-02  2.12665983e-02 -5.88811189e-02  1.19310915e-01
   2.22056899e-02 -2.29899697e-02 -3.82036492e-02 -2.88952868e-02
  -1.33027956e-02  4.40407507e-02 -1.46717196e-02  2.80320719e-02
   1.50995627e-01  2.90074162e-02  4.50345203e-02 -4.33639251e-02
   1.18224867e-01 -6.62997412e-03 -5.13776876e-02  2.35958975e-02]
 [-1.43905163e-01 -4.10113186e-02  7.92513229e-03 -6.48154765e-02
   2.68994439e-02  3.61123979e-02  2.28527114e-02  5.30208051e-02
  -5.85825555e-02 -8.90521631e-02  2.43333708e-02  8.12708512e-02
  -3.77326533e-02  6.58803340e-03 -7.07552135e-02  5.07874079e-02
   8.67896676e-02 -5.89477792e-02  3.91666256e-02 -1.60537392e-03
  -8.37500207e-03 -7.79674447e-04  6.66520819e-02 -1.23959780e-02
  -6.20731227e-02 -1.21918805e-01  4.15029228e-02  5.27698807e-02
   5.02390712e-02  3.88444215e-02 -5.31930989e-03 -3.32547650e-02
  -5.22255749e-02  1.11472823e-01 -5.60358586e-03  2.32279673e-02
  -5.97924180e-02 -5.61708547e-02  1.14616547e-02  4.21232246e-02
  -2.90353633e-02 -5.36564365e-02 -1.69433326e-01  3.27419825e-02
   1.77143533e-02 -5.54178134e-02 -7.66134560e-02  4.51037101e-02
   4.66016643e-02  7.81711787e-02 -3.04208184e-03 -3.44057046e-02
  -1.82682555e-02  1.83674581e-02 -7.37466067e-02  1.23834677e-01
   4.20252346e-02 -6.91815168e-02  4.09110375e-02 -4.62471768e-02
   1.67891122e-02 -6.12685643e-02  1.91074852e-02  1.08835837e-02
   3.67559902e-02  2.63785869e-02 -4.10502851e-02 -1.19074650e-01
   1.42071890e-02  1.27629921e-01 -4.74180933e-03  1.52246192e-01
   3.99572514e-02  3.26225674e-03  2.25756671e-02 -3.30147259e-02
  -8.19876492e-02 -6.57388568e-03 -2.25643173e-01 -8.87736958e-03
   7.04631954e-03 -3.38123068e-02  4.39576469e-02 -1.50868278e-02
  -4.35781926e-02  2.62270458e-02 -2.92740937e-04 -7.02827191e-03
  -1.08777247e-02 -1.21029383e-02  8.31807405e-02  1.84729602e-02
   9.29129962e-03 -1.45963237e-01  7.39374608e-02 -3.40650091e-03
  -3.23919691e-02 -4.03559692e-02 -7.72162005e-02 -9.43259299e-02
  -6.63502738e-02  9.22812428e-03  3.31165455e-02  1.50196012e-02
   3.36592235e-02  3.06524001e-02 -2.34730765e-02 -1.88412424e-02
  -3.54763158e-02 -4.06623781e-02  3.02018900e-03  3.11062261e-02
   3.80762853e-02 -3.78632620e-02 -4.72665727e-02 -2.28680931e-02
  -7.42252469e-02 -7.54361004e-02  5.94624784e-03 -1.97695587e-02
  -1.29422262e-01 -6.89412840e-03  3.43658738e-02  4.95797172e-02
  -1.13233939e-01 -9.52318236e-02  1.47603601e-02 -2.87221950e-02]
 [ 2.85068825e-02  1.09206811e-02 -1.04436222e-02  3.24088894e-02
   2.04240456e-02 -4.70261946e-02 -4.05029953e-02  4.56696231e-04
  -2.41787229e-02 -1.17388722e-02  6.26446540e-03  4.71617691e-02
   5.00804745e-02 -8.10170453e-03 -6.91080466e-02  1.94842815e-02
  -1.01218969e-02 -6.79947212e-02 -3.05192415e-02 -3.49425748e-02
  -3.32167819e-02 -9.10169259e-03 -1.80494431e-02 -1.41733587e-02
  -4.64292951e-02 -2.76799351e-02  5.80314212e-02 -5.70610501e-02
   3.68091464e-02 -6.23536371e-02 -4.25765924e-02 -2.44437754e-02
   1.70929376e-02 -1.88584961e-02  4.47770301e-03 -3.34462933e-02
  -3.85983326e-02 -1.04162954e-02 -1.33004189e-02  3.31010204e-03
   9.31033399e-03  3.06809191e-02 -1.40589448e-02  7.82466773e-03
  -1.16372950e-01 -3.24510708e-02 -5.08334674e-02  3.28254215e-02
   3.23938876e-02 -5.23326620e-02 -1.76377464e-02 -1.15462439e-02
  -1.84873231e-02 -6.94978684e-02 -7.63279647e-02  6.85001314e-02
  -7.22241635e-03  2.82568019e-02  4.41891290e-02  5.56890620e-03
  -1.49638541e-02  2.95842141e-02 -2.71238666e-02 -5.86539768e-02
  -5.37903719e-02 -5.52431792e-02 -1.17051490e-02  9.76919848e-03
   5.45811877e-02 -7.70913288e-02 -9.75939538e-03  5.71840145e-02
  -6.75653592e-02 -9.83447656e-02  2.26931740e-03 -2.79521942e-02
   4.02357280e-02  3.49997915e-02 -1.45346364e-02 -2.10945960e-02
   2.30105445e-02 -7.05937743e-02 -4.68160957e-02  3.42247449e-02
   3.16638723e-02 -5.88139966e-02  2.79647149e-02 -3.80832851e-02
   3.78961558e-03 -4.83530723e-02  2.27900296e-02 -1.87282562e-02
  -1.49361007e-02 -2.81245839e-02 -2.77238376e-02  1.15134539e-02
   2.67724004e-02 -1.71672669e-03 -8.92898664e-02 -2.20967159e-02
  -3.24652120e-02 -6.90784771e-03  4.32404615e-02 -4.56478037e-02
  -6.93438798e-02  1.29263205e-02  4.21099700e-02 -1.56758893e-02
   4.44179662e-02 -8.18872731e-03 -1.53536452e-02  1.39790010e-02
  -3.81870791e-02 -1.51640149e-02 -1.15610948e-02  1.46167558e-02
   5.03001269e-04 -8.54391083e-02 -3.18506174e-02  2.21756417e-02
   2.62787174e-02  1.74762066e-02  5.97366923e-03  2.55460925e-02
  -4.83924970e-02  2.11033765e-02  6.33459985e-02  8.70875642e-03]
 [-8.76312405e-02 -4.63841856e-02 -1.83961708e-02 -9.88073461e-03
   4.91697434e-03  3.35624702e-02  6.73504686e-03  1.37176514e-01
  -6.49596378e-02 -7.97250494e-02  2.51876768e-02 -2.68096402e-02
   3.38761806e-02 -1.70509517e-02  3.15749533e-02  2.78816801e-02
   4.37994376e-02 -7.71007687e-02  3.61244753e-02 -5.99827655e-02
   4.03764136e-02 -9.94367898e-02  1.13712639e-01 -6.36251196e-02
  -4.30773534e-02 -9.17574167e-02 -1.23446072e-02 -1.45552317e-02
  -1.40016375e-04 -7.91207477e-02  3.85501608e-02 -1.04391493e-01
   2.54577510e-02  1.85844898e-02 -3.54385152e-02 -5.83665930e-02
   5.59260661e-04 -5.75293824e-02  4.29503284e-02  6.83576986e-02
  -3.27452756e-02  1.72409657e-02 -6.25306591e-02 -1.27394451e-02
  -6.61623776e-02  1.42861390e-05 -4.05595318e-04 -7.04986975e-02
